{"learner":{"attributes":{},"feature_names":[],"feature_types":[],"gradient_booster":{"model":{"gbtree_model_param":{"num_parallel_tree":"1","num_trees":"100"},"iteration_indptr":[0,1,2,3,4,5,6,7,8,9,10,11,12,13,14,15,16,17,18,19,20,21,22,23,24,25,26,27,28,29,30,31,32,33,34,35,36,37,38,39,40,41,42,43,44,45,46,47,48,49,50,51,52,53,54,55,56,57,58,59,60,61,62,63,64,65,66,67,68,69,70,71,72,73,74,75,76,77,78,79,80,81,82,83,84,85,86,87,88,89,90,91,92,93,94,95,96,97,98,99,100],"tree_info":[0,0,0,0,0,0,0,0,0,0,0,0,0,0,0,0,0,0,0,0,0,0,0,0,0,0,0,0,0,0,0,0,0,0,0,0,0,0,0,0,0,0,0,0,0,0,0,0,0,0,0,0,0,0,0,0,0,0,0,0,0,0,0,0,0,0,0,0,0,0,0,0,0,0,0,0,0,0,0,0,0,0,0,0,0,0,0,0,0,0,0,0,0,0,0,0,0,0,0,0],"trees":[{"base_weights":[4.0264084E-8,-6.975856E-1,8.0226177E-1,-1.419371E-1,-9.3989784E-1,4.2881295E-1,1.2077141E0,-5.7165515E-1,1.4520667E-1,-1.6681296E-1,-1.084804E0,7.188537E-1,1.2757486E-1,1.3714452E0,7.9151493E-1,2.2462778E-1,-7.076679E-1,4.524484E-1,-2.5389794E-1,2.2577655E-1,-4.2311972E-1,-1.3292E0,-7.815337E-1,6.3368255E-1,1.1997744E0,5.209164E-1,-1.5382138E-1,1.2022315E0,1.5523758E0,9.7752464E-1,2.4230538E-1,6.6644484E-1,-2.5476694E-1,-8.9463435E-2,-8.544851E-1,7.2146297E-1,1.4105438E-1,1.7583096E-1,-5.1414466E-1,3.2757893E-2,1.0247787E0,5.331124E-1,-5.5058587E-1,-8.509724E-1,-1.4297038E0,-4.3546426E-1,-1.0793525E0,5.0133586E-1,9.266031E-1,1.449126E0,8.250552E-1,7.220852E-1,2.339686E-2,3.6860538E-1,-3.9261645E-1,1.2613345E0,4.867335E-1,1.7122753E-1,1.568108E0,7.747466E-1,1.2167054E0,5.338665E-1,-2.264672E-1,-9.019251E-3,3.1572378E-1,-2.1764752E-1,9.224309E-2,-7.065553E-2,3.0660465E-1,-7.5308375E-2,-2.9959843E-1,3.4993288E-1,1.6457608E-1,1.7387417E-1,-2.4943264E-2,2.2136211E-1,-1.7889202E-2,-1.9903947E-1,6.743361E-2,1.7431748E-1,-6.1605975E-2,3.6660048E-1,-1.8005449E-1,2.7593464E-1,-6.672972E-2,1.7532071E-1,-1.8560542E-1,-2.857518E-1,-3.1644993E-2,-2.7658924E-1,-4.4379628E-1,8.00773E-2,-1.5927589E-1,-2.312104E-1,-3.77899E-1,9.39606E-3,1.9640873E-1,1.3639499E-1,3.2153222E-1,4.4953263E-1,-8.576293E-2,3.3786452E-1,7.8722544E-2,3.6194384E-1,1.5733132E-1,2.1944633E-1,-6.0221635E-2,1.7281373E-1,-9.137096E-2,3.5226826E-2,-1.5608573E-1,4.2650372E-1,3.133342E-1,4.1532177E-1,6.5867476E-2,3.5995007E-1,-1.5005675E-1,5.0217533E-1,4.1410223E-1,3.5723633E-1,1.7956196E-1,3.8039997E-1,-1.8241657E-2,2.4699207E-1,3.9407387E-2,-1.0628689E-1,4.4994894E-1],"categories":[],"categories_nodes":[],"categories_segments":[],"categories_sizes":[],"default_left":[0,0,0,0,0,0,0,0,0,0,0,0,0,0,0,0,0,0,0,0,0,0,0,0,0,0,0,0,0,0,0,0,0,0,0,0,0,0,0,0,0,0,0,0,0,0,0,0,0,0,0,0,0,0,0,0,0,0,0,0,0,0,0,0,0,0,0,0,0,0,0,0,0,0,0,0,0,0,0,0,0,0,0,0,0,0,0,0,0,0,0,0,0,0,0,0,0,0,0,0,0,0,0,0,0,0,0,0,0,0,0,0,0,0,0,0,0,0,0,0,0,0,0,0,0,0,0],"id":0,"left_children":[1,3,5,7,9,11,13,15,17,19,21,23,25,27,29,31,33,35,37,39,41,43,45,47,49,51,53,55,57,59,61,63,65,67,69,71,73,75,77,79,81,83,85,87,89,91,93,95,97,99,101,103,105,107,109,111,113,115,117,119,121,123,125,-1,-1,-1,-1,-1,-1,-1,-1,-1,-1,-1,-1,-1,-1,-1,-1,-1,-1,-1,-1,-1,-1,-1,-1,-1,-1,-1,-1,-1,-1,-1,-1,-1,-1,-1,-1,-1,-1,-1,-1,-1,-1,-1,-1,-1,-1,-1,-1,-1,-1,-1,-1,-1,-1,-1,-1,-1,-1,-1,-1,-1,-1,-1,-1],"loss_changes":[4.9316025E3,6.344944E2,6.200593E2,1.7684044E2,3.6748438E2,1.8644604E2,1.3278516E2,6.232582E1,1.0550812E2,5.2344208E1,2.0380469E2,4.3784363E1,1.1613318E2,4.1256104E1,5.6665344E1,1.8067287E1,4.4442825E1,4.0610207E1,4.1972805E1,3.1697674E1,3.862705E1,7.227295E1,1.2689374E2,3.5433777E1,1.3987854E1,4.3770447E1,7.649351E1,3.035144E1,1.44470215E1,1.9221497E1,1.9563047E1,1.1927368E1,1.1140385E1,1.5703307E1,3.42247E1,1.9399445E1,2.2316978E1,1.8836205E1,2.5912643E1,2.1889606E1,1.3552597E1,1.1160076E1,2.1848572E1,2.0185028E1,3.0428955E1,3.8576256E1,3.595508E1,4.6111694E1,1.9176224E1,8.663849E0,1.1099754E1,2.9190079E1,2.0302805E1,2.7056864E1,2.744252E1,2.2015625E1,1.3486604E1,6.6430964E0,1.0990845E1,1.5983444E1,1.2462128E1,1.0144047E1,1.2722808E1,0E0,0E0,0E0,0E0,0E0,0E0,0E0,0E0,0E0,0E0,0E0,0E0,0E0,0E0,0E0,0E0,0E0,0E0,0E0,0E0,0E0,0E0,0E0,0E0,0E0,0E0,0E0,0E0,0E0,0E0,0E0,0E0,0E0,0E0,0E0,0E0,0E0,0E0,0E0,0E0,0E0,0E0,0E0,0E0,0E0,0E0,0E0,0E0,0E0,0E0,0E0,0E0,0E0,0E0,0E0,0E0,0E0,0E0,0E0,0E0,0E0,0E0,0E0,0E0],"parents":[2147483647,0,0,1,1,2,2,3,3,4,4,5,5,6,6,7,7,8,8,9,9,10,10,11,11,12,12,13,13,14,14,15,15,16,16,17,17,18,18,19,19,20,20,21,21,22,22,23,23,24,24,25,25,26,26,27,27,28,28,29,29,30,30,31,31,32,32,33,33,34,34,35,35,36,36,37,37,38,38,39,39,40,40,41,41,42,42,43,43,44,44,45,45,46,46,47,47,48,48,49,49,50,50,51,51,52,52,53,53,54,54,55,55,56,56,57,57,58,58,59,59,60,60,61,61,62,62],"right_children":[2,4,6,8,10,12,14,16,18,20,22,24,26,28,30,32,34,36,38,40,42,44,46,48,50,52,54,56,58,60,62,64,66,68,70,72,74,76,78,80,82,84,86,88,90,92,94,96,98,100,102,104,106,108,110,112,114,116,118,120,122,124,126,-1,-1,-1,-1,-1,-1,-1,-1,-1,-1,-1,-1,-1,-1,-1,-1,-1,-1,-1,-1,-1,-1,-1,-1,-1,-1,-1,-1,-1,-1,-1,-1,-1,-1,-1,-1,-1,-1,-1,-1,-1,-1,-1,-1,-1,-1,-1,-1,-1,-1,-1,-1,-1,-1,-1,-1,-1,-1,-1,-1,-1,-1,-1,-1],"split_conditions":[1.205782E-1,-4.102705E-2,1.9136329E-1,5.06873E-2,2.822347E-1,-3.8968414E-2,-2.6532434E-2,-2.6023832E-1,-1.26065E-1,-1.3437463E-1,4.864406E-2,-1.3197535E-1,-1.2992132E-1,2.4655253E-1,-8.138169E-2,-7.968155E-2,-2.583413E-2,-7.589722E-2,1.2281844E-2,4.7E1,-5.109582E-2,-2.135071E-2,2.451767E-2,3.5943365E-1,6.537081E-2,5.2616036E-1,1.1570388E-1,-2.5128E-3,-1.3346386E-1,2.4180529E-1,9.892266E-2,2.4796453E-1,8.440838E-2,-2.2067526E-1,-3.455769E-1,-1.369593E-2,-6.21425E-3,6.586826E1,3.8612086E-1,-7.1729444E-2,7.496724E-2,7.464789E1,5.5888653E1,4.2124423E-1,3.807371E-1,3.4976497E-1,-2.25796E-3,-1.9787693E-1,-2.20011E-3,8.251978E-2,3.797878E-2,-2.231584E-2,7.357261E-2,5.119145E-2,-1.1503936E-1,-1.2524772E-1,-1.307402E-1,-5.727964E-2,-9.10107E-2,-2.4165176E-2,3.6876163E-1,-2.776562E-1,3.330266E-1,-9.019251E-3,3.1572378E-1,-2.1764752E-1,9.224309E-2,-7.065553E-2,3.0660465E-1,-7.5308375E-2,-2.9959843E-1,3.4993288E-1,1.6457608E-1,1.7387417E-1,-2.4943264E-2,2.2136211E-1,-1.7889202E-2,-1.9903947E-1,6.743361E-2,1.7431748E-1,-6.1605975E-2,3.6660048E-1,-1.8005449E-1,2.7593464E-1,-6.672972E-2,1.7532071E-1,-1.8560542E-1,-2.857518E-1,-3.1644993E-2,-2.7658924E-1,-4.4379628E-1,8.00773E-2,-1.5927589E-1,-2.312104E-1,-3.77899E-1,9.39606E-3,1.9640873E-1,1.3639499E-1,3.2153222E-1,4.4953263E-1,-8.576293E-2,3.3786452E-1,7.8722544E-2,3.6194384E-1,1.5733132E-1,2.1944633E-1,-6.0221635E-2,1.7281373E-1,-9.137096E-2,3.5226826E-2,-1.5608573E-1,4.2650372E-1,3.133342E-1,4.1532177E-1,6.5867476E-2,3.5995007E-1,-1.5005675E-1,5.0217533E-1,4.1410223E-1,3.5723633E-1,1.7956196E-1,3.8039997E-1,-1.8241657E-2,2.4699207E-1,3.9407387E-2,-1.0628689E-1,4.4994894E-1],"split_indices":[12,59,12,12,39,59,59,49,49,13,12,40,49,12,13,59,47,59,47,6,38,47,47,32,34,25,33,13,28,12,38,15,48,50,29,26,47,9,32,26,47,9,9,15,25,25,59,14,56,13,26,26,16,47,53,49,59,46,49,54,16,23,52,0,0,0,0,0,0,0,0,0,0,0,0,0,0,0,0,0,0,0,0,0,0,0,0,0,0,0,0,0,0,0,0,0,0,0,0,0,0,0,0,0,0,0,0,0,0,0,0,0,0,0,0,0,0,0,0,0,0,0,0,0,0,0,0],"split_type":[0,0,0,0,0,0,0,0,0,0,0,0,0,0,0,0,0,0,0,0,0,0,0,0,0,0,0,0,0,0,0,0,0,0,0,0,0,0,0,0,0,0,0,0,0,0,0,0,0,0,0,0,0,0,0,0,0,0,0,0,0,0,0,0,0,0,0,0,0,0,0,0,0,0,0,0,0,0,0,0,0,0,0,0,0,0,0,0,0,0,0,0,0,0,0,0,0,0,0,0,0,0,0,0,0,0,0,0,0,0,0,0,0,0,0,0,0,0,0,0,0,0,0,0,0,0,0],"sum_hessian":[8.81E3,4.7125E3,4.0975E3,1.4315E3,3.281E3,2.134E3,1.9635E3,5.73E2,8.585E2,5.1825E2,2.76275E3,1.0865E3,1.0475E3,1.4075E3,5.56E2,8.35E1,4.895E2,4.85E2,3.735E2,2.0475E2,3.135E2,1.528E3,1.23475E3,9.25E2,1.615E2,4.365E2,6.11E2,7.3125E2,6.7625E2,4.1475E2,1.4125E2,4.325E1,4.025E1,9.425E1,3.9525E2,2.595E2,2.255E2,1.41E2,2.325E2,1.6575E2,3.9E1,3.65E1,2.77E2,2.67E2,1.261E3,5.7225E2,6.625E2,6.39E2,2.86E2,9.525E1,6.625E1,3.105E2,1.26E2,1.915E2,4.195E2,6.7475E2,5.65E1,7.75E0,6.685E2,2.2675E2,1.88E2,8.7E1,5.425E1,1.575E1,2.75E1,2.175E1,1.85E1,8.4E1,1.025E1,7.675E1,3.185E2,7.1E1,1.885E2,7.575E1,1.4975E2,4.1E1,1E2,1.935E2,3.9E1,4.975E1,1.16E2,3.5E1,4E0,2.4E1,1.25E1,1.525E1,2.6175E2,2.3475E2,3.225E1,1.14E2,1.147E3,6.825E1,5.04E2,2.4625E2,4.1625E2,1.575E2,4.815E2,6.825E1,2.1775E2,9.275E1,2.5E0,4.25E1,2.375E1,8.85E1,2.22E2,2.975E1,9.625E1,1.465E2,4.5E1,8.4E1,3.355E2,3.8475E2,2.9E2,1.2E1,4.45E1,2.75E0,5E0,4.225E2,2.46E2,6.575E1,1.61E2,1.8075E2,7.25E0,5E1,3.7E1,5.125E1,3E0],"tree_param":{"num_deleted":"0","num_feature":"61","num_nodes":"127","size_leaf_vector":"1"}},{"base_weights":[7.5903983E-4,-4.3970934E-1,6.687946E-1,-7.56201E-1,-1.4385074E-1,4.7050855E-1,9.968622E-1,-1.2128699E-1,-8.463511E-1,3.3567142E-1,-3.067451E-1,6.471168E-1,1.361474E-1,1.2002424E0,8.1129235E-1,1.4726768E-1,-4.5424017E-1,-5.057776E-1,-1.0050972E0,2.3710741E-1,1.0338116E0,8.847443E-2,-4.4410807E-1,8.738098E-1,4.9755293E-1,5.352885E-1,-9.096246E-2,9.254418E-1,1.2748886E0,1.4304973E-1,8.8115335E-1,9.358663E-1,2.7855414E-3,8.732107E-1,-5.3257304E-1,6.5466166E-1,-5.6850964E-1,-1.0585464E0,-5.08008E-1,6.027725E-1,5.136895E-2,-2.5132865E-1,1.0950317E0,4.9319044E-1,-8.70904E-2,1.06250554E-1,-5.5712795E-1,1.1547449E0,7.54755E-1,5.623796E-1,-1.05381384E-1,8.8405234E-1,3.3275554E-1,-3.0036068E-1,2.4594708E-1,9.802944E-1,-8.3650637E-1,1.041446E0,1.3451726E0,4.5857432E-1,-5.4566896E-1,1.1039547E0,7.061095E-1,3.2012236E-1,-2.3493375E-1,-1.8001008E-1,5.3813756E-2,-1.5039797E-1,3.968333E-1,-3.235691E-2,-2.2772215E-1,-8.185507E-2,3.0595952E-1,-2.8235477E-1,-1.2465557E-1,-2.7750212E-1,-3.7516317E-1,-3.4066223E-2,-2.357536E-1,-2.2262843E-1,2.011692E-1,-3.672554E-2,1.3228552E-1,3.4856406E-1,-1.8482587E-1,1.0622604E-1,3.7541658E-1,-8.561088E-2,7.866561E-2,-1.7523298E-2,1.7762963E-1,-1.9842167E-1,-3.2664396E-2,9.032987E-3,3.639453E-1,1.5209004E-1,2.9870176E-1,1.1953702E-1,2.3328677E-1,-2.3414277E-1,7.2213806E-2,-8.844122E-2,2.8500918E-1,1.8595773E-1,-4.4894475E-2,2.7857E-3,-1.6544141E-1,4.901604E-2,4.658424E-1,-2.1697856E-1,3.04354E-1,1.3752544E-1,-4.2869565E-1,8.077711E-2,3.3914602E-1,4.053974E-1,3.8614362E-2,6.6959225E-2,4.0536928E-1,-2.6975134E-1,1.2409811E-1,-3.9489113E-2,3.437241E-1,1.08286865E-1,2.6032525E-1],"categories":[],"categories_nodes":[],"categories_segments":[],"categories_sizes":[],"default_left":[0,0,0,0,0,0,0,0,0,0,0,0,0,0,0,0,0,0,0,0,0,0,0,0,0,0,0,0,0,0,0,0,0,0,0,0,0,0,0,0,0,0,0,0,0,0,0,0,0,0,0,0,0,0,0,0,0,0,0,0,0,0,0,0,0,0,0,0,0,0,0,0,0,0,0,0,0,0,0,0,0,0,0,0,0,0,0,0,0,0,0,0,0,0,0,0,0,0,0,0,0,0,0,0,0,0,0,0,0,0,0,0,0,0,0,0,0,0,0,0,0,0,0,0,0],"id":1,"left_children":[1,3,5,7,9,11,13,15,17,19,21,23,25,27,29,31,33,35,37,39,41,43,45,47,49,51,53,55,57,59,61,63,65,67,69,71,73,75,77,79,81,-1,83,85,87,89,91,93,95,97,99,101,103,105,107,109,111,113,115,117,119,121,123,-1,-1,-1,-1,-1,-1,-1,-1,-1,-1,-1,-1,-1,-1,-1,-1,-1,-1,-1,-1,-1,-1,-1,-1,-1,-1,-1,-1,-1,-1,-1,-1,-1,-1,-1,-1,-1,-1,-1,-1,-1,-1,-1,-1,-1,-1,-1,-1,-1,-1,-1,-1,-1,-1,-1,-1,-1,-1,-1,-1,-1,-1],"loss_changes":[2.5348337E3,4.8601202E2,2.2220435E2,1.4345361E2,2.0979144E2,1.2601056E2,4.76604E1,2.805473E1,1.1822168E2,4.6627007E1,1.0885042E2,4.693335E1,6.706907E1,1.1388855E1,3.1474518E1,1.9824266E1,1.5021896E1,5.1344345E1,3.9232788E1,4.0597237E1,1.0538818E1,3.6833466E1,9.25856E1,1.7658722E1,3.3050262E1,1.8655182E1,3.3377827E1,1.382235E1,6.4612427E0,1.4432176E1,2.3113434E1,6.9122677E0,1.5870482E1,5.7176275E0,1.2694569E1,1.2599739E1,3.7514236E1,3.347229E1,1.6048225E1,1.885997E1,2.6986034E1,0E0,1.0066429E1,1.6094948E1,2.514562E1,2.0376333E1,5.761972E1,1.0671234E1,2.2896805E1,2.6585648E1,1.9529999E1,7.89859E0,2.3819975E1,2.267701E1,1.9328573E1,8.366325E0,4.185332E0,7.624283E0,2.5566406E0,9.21656E0,7.480489E0,1.3978058E1,1.8982925E1,0E0,0E0,0E0,0E0,0E0,0E0,0E0,0E0,0E0,0E0,0E0,0E0,0E0,0E0,0E0,0E0,0E0,0E0,0E0,0E0,0E0,0E0,0E0,0E0,0E0,0E0,0E0,0E0,0E0,0E0,0E0,0E0,0E0,0E0,0E0,0E0,0E0,0E0,0E0,0E0,0E0,0E0,0E0,0E0,0E0,0E0,0E0,0E0,0E0,0E0,0E0,0E0,0E0,0E0,0E0,0E0,0E0,0E0,0E0,0E0,0E0,0E0],"parents":[2147483647,0,0,1,1,2,2,3,3,4,4,5,5,6,6,7,7,8,8,9,9,10,10,11,11,12,12,13,13,14,14,15,15,16,16,17,17,18,18,19,19,20,20,21,21,22,22,23,23,24,24,25,25,26,26,27,27,28,28,29,29,30,30,31,31,32,32,33,33,34,34,35,35,36,36,37,37,38,38,39,39,40,40,42,42,43,43,44,44,45,45,46,46,47,47,48,48,49,49,50,50,51,51,52,52,53,53,54,54,55,55,56,56,57,57,58,58,59,59,60,60,61,61,62,62],"right_children":[2,4,6,8,10,12,14,16,18,20,22,24,26,28,30,32,34,36,38,40,42,44,46,48,50,52,54,56,58,60,62,64,66,68,70,72,74,76,78,80,82,-1,84,86,88,90,92,94,96,98,100,102,104,106,108,110,112,114,116,118,120,122,124,-1,-1,-1,-1,-1,-1,-1,-1,-1,-1,-1,-1,-1,-1,-1,-1,-1,-1,-1,-1,-1,-1,-1,-1,-1,-1,-1,-1,-1,-1,-1,-1,-1,-1,-1,-1,-1,-1,-1,-1,-1,-1,-1,-1,-1,-1,-1,-1,-1,-1,-1,-1,-1,-1,-1,-1,-1,-1,-1,-1,-1,-1],"split_conditions":[1.3777682E-1,5.888048E-2,2.1961632E-1,-7.3373765E-2,-1.8674661E-1,-1.955522E-2,-7.589722E-2,-1.4459474E-1,4.4951457E-1,1.730608E-1,1.1740419E-1,-8.885154E-2,-1.5933602E-1,2.98665E-3,2.0000681E-1,-2.261675E-1,-5.2048904E-1,-1.0113165E-1,4.0504017E-1,6.466771E-2,-2.9703784E-1,3.567525E-2,-7.674498E-2,-1.494553E-2,-6.14658E-3,9.0555534E-2,-2.2348021E-1,7.3731868E-3,3.329362E-2,1.0651518E-1,1.0597799E-1,2.9059854E-1,-2.802929E-2,-1.07297E-1,9.080431E-2,1.2E1,-2.292734E-2,2.586374E-2,-6.351002E-2,-2.6937664E-1,7.189681E-2,-2.5132865E-1,8.74266E-2,2.879E3,3.4E1,3.8562107E-1,3.7514243E-1,-6.748017E-2,3.2003266E-1,-1.541852E-1,-1.8628386E-1,4.4162164E0,-1.9608015E-1,-2.9875523E-1,6.44E2,-1.8235964E-1,-1.2040844E-1,1.9238137E0,-2.1337241E-1,1.18184954E-1,2.836552E-1,-5.6709487E-2,3.3069098E-1,3.2012236E-1,-2.3493375E-1,-1.8001008E-1,5.3813756E-2,-1.5039797E-1,3.968333E-1,-3.235691E-2,-2.2772215E-1,-8.185507E-2,3.0595952E-1,-2.8235477E-1,-1.2465557E-1,-2.7750212E-1,-3.7516317E-1,-3.4066223E-2,-2.357536E-1,-2.2262843E-1,2.011692E-1,-3.672554E-2,1.3228552E-1,3.4856406E-1,-1.8482587E-1,1.0622604E-1,3.7541658E-1,-8.561088E-2,7.866561E-2,-1.7523298E-2,1.7762963E-1,-1.9842167E-1,-3.2664396E-2,9.032987E-3,3.639453E-1,1.5209004E-1,2.9870176E-1,1.1953702E-1,2.3328677E-1,-2.3414277E-1,7.2213806E-2,-8.844122E-2,2.8500918E-1,1.8595773E-1,-4.4894475E-2,2.7857E-3,-1.6544141E-1,4.901604E-2,4.658424E-1,-2.1697856E-1,3.04354E-1,1.3752544E-1,-4.2869565E-1,8.077711E-2,3.3914602E-1,4.053974E-1,3.8614362E-2,6.6959225E-2,4.0536928E-1,-2.6975134E-1,1.2409811E-1,-3.9489113E-2,3.437241E-1,1.08286865E-1,2.6032525E-1],"split_indices":[12,12,12,59,49,59,59,49,25,48,33,59,13,46,32,58,17,26,32,38,14,38,59,26,13,33,40,58,48,38,33,11,12,55,24,6,12,59,31,14,56,0,59,3,6,15,32,11,32,14,19,8,29,23,0,42,53,41,37,31,12,11,15,0,0,0,0,0,0,0,0,0,0,0,0,0,0,0,0,0,0,0,0,0,0,0,0,0,0,0,0,0,0,0,0,0,0,0,0,0,0,0,0,0,0,0,0,0,0,0,0,0,0,0,0,0,0,0,0,0,0,0,0,0,0],"split_type":[0,0,0,0,0,0,0,0,0,0,0,0,0,0,0,0,0,0,0,0,0,0,0,0,0,0,0,0,0,0,0,0,0,0,0,0,0,0,0,0,0,0,0,0,0,0,0,0,0,0,0,0,0,0,0,0,0,0,0,0,0,0,0,0,0,0,0,0,0,0,0,0,0,0,0,0,0,0,0,0,0,0,0,0,0,0,0,0,0,0,0,0,0,0,0,0,0,0,0,0,0,0,0,0,0,0,0,0,0,0,0,0,0,0,0,0,0,0,0,0,0,0,0,0,0],"sum_hessian":[8.612603E3,5.190557E3,3.4220454E3,2.5070789E3,2.6834783E3,2.134422E3,1.2876232E3,3.1200653E2,2.1950723E3,6.8016724E2,2.003311E3,1.3960818E3,7.383404E2,6.1172217E2,6.7590106E2,1.7301396E2,1.3899258E2,6.9919855E2,1.4958738E3,5.971944E2,8.2972786E1,5.1678314E2,1.4865278E3,5.530243E2,8.4305756E2,2.6726697E2,4.7107343E2,1.3353362E2,4.7818857E2,6.4262054E1,6.11639E2,2.5942068E1,1.4707188E2,7.1794863E0,1.318131E2,3.5375435E1,6.638231E2,1.3496261E3,1.4624765E2,2.0040666E2,3.9678775E2,2.2263439E0,8.0746445E1,1.5580614E2,3.60977E2,2.532702E2,1.2332577E3,1.6201535E2,3.910089E2,7.6127374E2,8.178384E1,9.695115E1,1.7031581E2,2.9057922E2,1.804942E2,1.2993222E2,3.6013906E0,1.1431565E2,3.6387292E2,4.430064E1,1.9961412E1,2.6677393E2,3.4486505E2,2.4454699E1,1.4873681E0,3.277919E1,1.14292694E2,1.7410736E0,5.4384127E0,4.6359516E1,8.5453575E1,1.0065312E1,2.5310123E1,1.9170198E2,4.7212115E2,7.9942316E2,5.50203E2,6.1021835E1,8.522582E1,9.139898E0,1.9126677E2,2.748616E2,1.2192615E2,7.801943E1,2.727014E0,1.3289198E2,2.2914162E1,2.3038564E2,1.3059134E2,1.8981776E2,6.3452435E1,1.00011993E3,2.3313777E2,8.073436E0,1.5394191E2,1.9428618E2,1.9672275E2,4.3377463E2,3.274991E2,2.7292236E1,5.44916E1,4.9547386E0,9.199641E1,1.0659228E2,6.3723534E1,1.3055453E2,1.6002469E2,1.708273E2,9.666908E0,2.1620176E0,1.2777021E2,1.20155E0,2.3998406E0,1.2234874E1,1.0208077E2,3.6193164E2,1.9412606E0,3.6046013E1,8.254626E0,1.4632287E1,5.3291254E0,8.657762E0,2.5811618E2,1.110253E2,2.3383977E2],"tree_param":{"num_deleted":"0","num_feature":"61","num_nodes":"125","size_leaf_vector":"1"}},{"base_weights":[1.3003517E-3,-4.449185E-1,3.8215503E-1,1.1149042E-1,-5.405061E-1,1.3087341E-1,6.3378614E-1,5.5688184E-1,-1.3439164E-2,-2.4596441E-1,-7.1530956E-1,3.600644E-1,-7.376408E-2,8.78472E-1,4.933177E-1,4.3851444E-1,1.294588E0,-3.782264E-1,1.3494693E-1,6.253112E-2,-4.1041887E-1,-4.260128E-1,-8.6529493E-1,4.7405055E-1,7.332331E-2,-2.2256193E-1,3.5940096E-1,6.8330705E-1,1.0018073E0,6.629948E-1,2.812905E-1,8.069952E-2,7.482439E-1,1.5420641E0,-1.5995423E-1,-5.4230356E-1,5.9254676E-1,6.447059E-1,4.1594743E-3,4.11374E-1,-1.6794524E-1,6.987566E-2,-5.1307493E-1,2.0202029E-1,-5.0305736E-1,-8.9844364E-1,-2.5414774E-1,-4.5782554E-1,5.12444E-1,2.7401432E-1,-3.1050768E-1,3.1863642E-1,-3.656587E-1,6.360432E-1,6.753725E-2,8.196047E-1,2.8771898E-1,1.0189987E0,-9.4129497E-1,3.2199606E-1,7.664773E-1,1.0639465E-3,4.770681E-1,-1.0128327E-1,1.9793828E-1,8.780906E-3,2.621422E-1,4.919357E-1,7.7432245E-2,1.7383985E-1,-1.9315913E-1,2.8247973E-1,-1.8562686E-1,-2.132204E-1,2.2353564E-1,-2.9765224E-2,1.6381438E-1,5.047198E-2,2.4258293E-1,1.4680798E-1,-1.0574302E-1,8.564492E-2,-1.3837779E-1,-1.7872332E-1,3.2240532E-2,2.6038504E-1,3.9639124E-3,-8.815268E-2,-2.0383362E-1,-2.2390907E-1,-3.0910212E-1,4.8643264E-1,-1.0234376E-1,8.1156224E-2,-2.8536803E-1,1.261651E-1,2.624038E-1,1.9501856E-2,1.7697766E-1,-1.9544296E-1,1.5452842E-2,3.7068397E-2,2.7654046E-1,-1.4721864E-1,1.2660225E-2,5.9275772E-2,2.393638E-1,-4.2939684E-3,3.6885792E-1,-2.595269E-1,2.5273755E-1,2.9762474E-1,-3.7650656E-2,1.04848305E-2,3.122944E-1,-4.9047542E-1,1.5989558E-1,1.8690136E-1,2.9143668E-3,1.7296766E-1,2.9058072E-1,5.8288474E-2,-1.231633E-1,1.5741202E-1,-2.513809E-1],"categories":[],"categories_nodes":[],"categories_segments":[],"categories_sizes":[],"default_left":[0,0,0,0,0,0,0,0,0,0,0,0,0,0,0,0,0,0,0,0,0,0,0,0,0,0,0,0,0,0,0,0,0,0,0,0,0,0,0,0,0,0,0,0,0,0,0,0,0,0,0,0,0,0,0,0,0,0,0,0,0,0,0,0,0,0,0,0,0,0,0,0,0,0,0,0,0,0,0,0,0,0,0,0,0,0,0,0,0,0,0,0,0,0,0,0,0,0,0,0,0,0,0,0,0,0,0,0,0,0,0,0,0,0,0,0,0,0,0,0,0,0,0,0,0],"id":2,"left_children":[1,3,5,7,9,11,13,15,17,19,21,23,25,27,29,31,33,35,37,39,41,43,45,47,49,51,53,55,57,59,61,63,65,67,-1,69,71,73,75,77,79,81,83,85,87,89,91,93,95,97,99,101,103,105,107,109,111,113,115,117,119,121,123,-1,-1,-1,-1,-1,-1,-1,-1,-1,-1,-1,-1,-1,-1,-1,-1,-1,-1,-1,-1,-1,-1,-1,-1,-1,-1,-1,-1,-1,-1,-1,-1,-1,-1,-1,-1,-1,-1,-1,-1,-1,-1,-1,-1,-1,-1,-1,-1,-1,-1,-1,-1,-1,-1,-1,-1,-1,-1,-1,-1,-1,-1],"loss_changes":[1.4079973E3,2.0297119E2,2.825504E2,3.1176025E1,1.6746436E2,1.04980156E2,7.6320984E1,1.014883E1,2.3782963E1,6.1625458E1,8.82688E1,3.447116E1,7.633158E1,1.8888855E1,5.0934845E1,1.1827871E1,8.266138E0,2.055596E1,2.0824593E1,3.4083515E1,3.9091446E1,3.3945435E1,2.7006409E1,2.7255722E1,2.3308731E1,6.8357895E1,2.4410915E1,1.6911743E1,1.7532257E1,2.758017E1,3.474899E1,1.2550956E1,5.154278E0,1.4276085E0,0E0,1.2813E1,8.550388E0,9.210045E0,1.4037288E1,1.6147804E1,3.1158466E1,1.6206423E1,3.3550064E1,9.687874E0,2.2802155E1,2.480188E1,1.2066679E1,1.118679E1,2.3793E1,1.3068362E1,1.2868552E1,2.16303E1,3.5594368E1,1.0866997E1,1.4141029E1,9.814957E0,2.42933E1,1.061203E1,5.8522253E0,1.7413815E1,2.2637512E1,2.0879454E1,2.3798897E1,0E0,0E0,0E0,0E0,0E0,0E0,0E0,0E0,0E0,0E0,0E0,0E0,0E0,0E0,0E0,0E0,0E0,0E0,0E0,0E0,0E0,0E0,0E0,0E0,0E0,0E0,0E0,0E0,0E0,0E0,0E0,0E0,0E0,0E0,0E0,0E0,0E0,0E0,0E0,0E0,0E0,0E0,0E0,0E0,0E0,0E0,0E0,0E0,0E0,0E0,0E0,0E0,0E0,0E0,0E0,0E0,0E0,0E0,0E0,0E0,0E0,0E0],"parents":[2147483647,0,0,1,1,2,2,3,3,4,4,5,5,6,6,7,7,8,8,9,9,10,10,11,11,12,12,13,13,14,14,15,15,16,16,17,17,18,18,19,19,20,20,21,21,22,22,23,23,24,24,25,25,26,26,27,27,28,28,29,29,30,30,31,31,32,32,33,33,35,35,36,36,37,37,38,38,39,39,40,40,41,41,42,42,43,43,44,44,45,45,46,46,47,47,48,48,49,49,50,50,51,51,52,52,53,53,54,54,55,55,56,56,57,57,58,58,59,59,60,60,61,61,62,62],"right_children":[2,4,6,8,10,12,14,16,18,20,22,24,26,28,30,32,34,36,38,40,42,44,46,48,50,52,54,56,58,60,62,64,66,68,-1,70,72,74,76,78,80,82,84,86,88,90,92,94,96,98,100,102,104,106,108,110,112,114,116,118,120,122,124,-1,-1,-1,-1,-1,-1,-1,-1,-1,-1,-1,-1,-1,-1,-1,-1,-1,-1,-1,-1,-1,-1,-1,-1,-1,-1,-1,-1,-1,-1,-1,-1,-1,-1,-1,-1,-1,-1,-1,-1,-1,-1,-1,-1,-1,-1,-1,-1,-1,-1,-1,-1,-1,-1,-1,-1,-1,-1,-1,-1,-1,-1],"split_conditions":[1.0267654E-1,3.712385E-2,1.726957E-1,7.034112E-2,-1.0839025E-1,1.664165E-2,-8.369198E-2,7.1797065E-2,2.0998783E-2,4.901275E-2,-2.7162746E-2,-2.25796E-3,-8.690848E-2,3.0321625E-1,-9.851167E-2,2.3028061E-1,3.1317818E-1,-8.707361E-2,-3.3810083E-2,5.11115E-3,-4.0546608E-1,-4.5599526E-1,8.032945E-2,-7.415587E-2,1.5693614E-1,-1.437114E-1,7.023786E-2,3.991885E-2,2.734929E-1,2.522522E-1,3.2090983E-1,1.81E2,-8.35468E-2,2.794316E-1,-1.5995423E-1,-2.9857862E-1,6E0,-8.002426E-2,8.771732E-2,5.30417E-2,-3.5051665E-1,4.047819E-2,1.1869416E-1,-4.9643535E-2,-3.938388E-2,2.0424046E-2,-1.6806217E-1,6.683705E-2,6.912171E-2,9.628234E-2,2.2911732E-1,2.2222397E-1,3.66789E-1,-1.9395927E-1,2.681158E0,-1.0933156E-1,-4.5892364E-1,-3.2157698E-1,2.3264296E-1,1.0889925E-1,4.306321E-2,7.464789E1,2.488686E-1,-1.0128327E-1,1.9793828E-1,8.780906E-3,2.621422E-1,4.919357E-1,7.7432245E-2,1.7383985E-1,-1.9315913E-1,2.8247973E-1,-1.8562686E-1,-2.132204E-1,2.2353564E-1,-2.9765224E-2,1.6381438E-1,5.047198E-2,2.4258293E-1,1.4680798E-1,-1.0574302E-1,8.564492E-2,-1.3837779E-1,-1.7872332E-1,3.2240532E-2,2.6038504E-1,3.9639124E-3,-8.815268E-2,-2.0383362E-1,-2.2390907E-1,-3.0910212E-1,4.8643264E-1,-1.0234376E-1,8.1156224E-2,-2.8536803E-1,1.261651E-1,2.624038E-1,1.9501856E-2,1.7697766E-1,-1.9544296E-1,1.5452842E-2,3.7068397E-2,2.7654046E-1,-1.4721864E-1,1.2660225E-2,5.9275772E-2,2.393638E-1,-4.2939684E-3,3.6885792E-1,-2.595269E-1,2.5273755E-1,2.9762474E-1,-3.7650656E-2,1.04848305E-2,3.122944E-1,-4.9047542E-1,1.5989558E-1,1.8690136E-1,2.9143668E-3,1.7296766E-1,2.9058072E-1,5.8288474E-2,-1.231633E-1,1.5741202E-1,-2.513809E-1],"split_indices":[12,38,12,33,13,47,59,57,12,54,59,59,21,15,49,32,16,40,47,47,30,17,45,56,33,53,38,26,54,32,32,2,56,11,0,58,5,46,55,56,30,47,55,31,13,59,53,38,57,48,60,42,32,19,41,28,17,14,12,33,56,9,38,0,0,0,0,0,0,0,0,0,0,0,0,0,0,0,0,0,0,0,0,0,0,0,0,0,0,0,0,0,0,0,0,0,0,0,0,0,0,0,0,0,0,0,0,0,0,0,0,0,0,0,0,0,0,0,0,0,0,0,0,0,0],"split_type":[0,0,0,0,0,0,0,0,0,0,0,0,0,0,0,0,0,0,0,0,0,0,0,0,0,0,0,0,0,0,0,0,0,0,0,0,0,0,0,0,0,0,0,0,0,0,0,0,0,0,0,0,0,0,0,0,0,0,0,0,0,0,0,0,0,0,0,0,0,0,0,0,0,0,0,0,0,0,0,0,0,0,0,0,0,0,0,0,0,0,0,0,0,0,0,0,0,0,0,0,0,0,0,0,0,0,0,0,0,0,0,0,0,0,0,0,0,0,0,0,0,0,0,0,0],"sum_hessian":[8.283039E3,3.814135E3,4.4689043E3,5.591564E2,3.2549788E3,2.2367656E3,2.2321387E3,1.2172656E2,4.374298E2,1.2131847E3,2.041794E3,1.0547272E3,1.1820385E3,8.121605E2,1.4199781E3,1.0626967E2,1.5456896E1,1.2603667E2,3.1139313E2,4.2206482E2,7.9111993E2,6.9844684E2,1.3433472E3,7.542445E2,3.0048276E2,8.801736E2,3.0186493E2,3.1703195E2,4.951286E2,7.87581E2,6.3239716E2,4.989223E1,5.637744E1,1.3751309E1,1.705586E0,1.0819179E2,1.7844881E1,6.277827E1,2.4861487E2,1.67602E2,2.5446283E2,1.3937038E2,6.517495E2,7.614275E1,6.223041E2,1.2737867E3,6.956039E1,2.9413105E1,7.2483136E2,1.9750224E2,1.029805E2,1.8380147E2,6.963721E2,1.543682E2,1.4749672E2,2.3499419E2,8.203776E1,4.912578E2,3.870785E0,1.8431898E2,6.03262E2,2.6051462E2,3.718825E2,2.9209606E1,2.0682623E1,8.565366E0,4.7812073E1,1.2521191E1,1.2301191E0,8.591363E0,9.9600426E1,1.4025819E1,3.8190613E0,3.9107158E0,5.8867558E1,2.0947072E2,3.9144142E1,1.0485032E2,6.2751686E1,5.541642E1,1.990464E2,9.945884E1,3.9911537E1,5.7516534E2,7.658415E1,1.6025E1,6.0117756E1,2.8588257E2,3.364215E2,5.9471954E2,6.790672E2,2.3016427E0,6.725874E1,1.2060873E1,1.7352234E1,5.798843E2,1.4494708E2,1.19588066E2,7.791418E1,5.2620182E1,5.036032E1,1.397942E2,4.4007263E1,5.327891E2,1.6358298E2,4.2215637E1,1.1215256E2,1.3871344E2,8.783287E0,2.651919E0,2.3234227E2,2.9815083E1,5.222268E1,1.0790917E1,4.804669E2,2.558225E0,1.31256E0,9.3346855E1,9.097213E1,3.1300876E2,2.9025327E2,1.7764603E2,8.28686E1,3.594613E2,1.2421213E1],"tree_param":{"num_deleted":"0","num_feature":"61","num_nodes":"125","size_leaf_vector":"1"}},{"base_weights":[1.3905205E-3,-3.747983E-1,2.53974E-1,-5.2845936E-2,-4.9701154E-1,1.1044957E-1,5.588316E-1,7.0779395E-1,-1.22550756E-1,-1.4651708E-1,-6.0481256E-1,2.503869E-1,-1.426491E-1,6.735341E-1,3.1129086E-1,-3.2828626E-1,8.84409E-1,1.05135076E-1,-2.936494E-1,-6.5727717E-1,-3.3715226E-2,-4.3091115E-1,-7.622238E-1,6.987661E-2,4.25147E-1,-4.124097E-1,-1.2022652E-2,5.4711944E-1,8.7301564E-1,9.159676E-2,5.40004E-1,1.7760086E-1,-4.143635E-1,1.2113334E0,5.7197523E-1,7.193924E-1,-8.553727E-4,-3.6377046E-1,1.1824114E0,1.4458019E-1,-8.168849E-1,6.371027E-1,-1.2208092E-1,-6.725943E-1,-2.849108E-1,-7.915328E-1,1.2021317E-1,1.8420522E-1,-2.5347152E-1,1.4282261E-1,5.420492E-1,4.534529E-1,-4.8449716E-1,3.3467838E-1,-1.07697256E-1,6.565152E-1,2.1373047E-1,1.0063462E0,6.3686186E-1,6.066327E-1,-7.979133E-2,5.867312E-1,-6.192395E-1,3.7499106E-1,-1.7372727E-1,3.9157584E-1,-1.2175377E-1,2.3399045E-1,-1.5412611E-1,3.4881535E-1,7.2855674E-2,9.023498E-2,-4.996532E-2,-1.5439463E-2,-1.6364327E-1,4.002021E-1,-6.2963046E-2,-2.2757807E-1,1.9310415E-1,3.0927107E-2,-2.8724274E-1,3.775613E-1,7.4916236E-2,-6.3825324E-2,1.4569506E-1,-2.2086146E-1,8.906816E-2,-1.3012996E-1,-1.2080794E-2,-5.6912415E-2,-2.4716575E-1,2.3415752E-1,-2.4298593E-1,3.5152327E-2,2.6101446E-1,-1.4719997E-1,1.8198827E-2,2.3108906E-1,1.0583038E-2,1.3731438E-1,2.5765327E-1,-4.970329E-2,2.5446123E-1,-1.7555383E-1,3.6433328E-2,2.0080087E-1,4.6965208E-2,-7.467944E-2,6.857146E-2,1.1891898E-1,2.4263744E-1,-2.8200766E-1,9.869016E-2,-8.1672765E-2,3.0652317E-1,-1.5823875E-1,2.1780597E-1,1.0412279E-2,2.4505034E-1,3.1768825E-2,-2.094775E-1,1.3861254E-1,3.1556082E-1,1.0003408E-1,-5.3202903E-1],"categories":[],"categories_nodes":[],"categories_segments":[],"categories_sizes":[],"default_left":[0,0,0,0,0,0,0,0,0,0,0,0,0,0,0,0,0,0,0,0,0,0,0,0,0,0,0,0,0,0,0,0,0,0,0,0,0,0,0,0,0,0,0,0,0,0,0,0,0,0,0,0,0,0,0,0,0,0,0,0,0,0,0,0,0,0,0,0,0,0,0,0,0,0,0,0,0,0,0,0,0,0,0,0,0,0,0,0,0,0,0,0,0,0,0,0,0,0,0,0,0,0,0,0,0,0,0,0,0,0,0,0,0,0,0,0,0,0,0,0,0,0,0,0,0],"id":3,"left_children":[1,3,5,7,9,11,13,15,17,19,21,23,25,27,29,31,33,35,37,39,41,43,45,47,49,51,53,55,57,59,61,63,-1,65,67,69,71,73,75,77,79,81,83,85,87,89,91,93,95,97,99,101,103,105,107,109,111,113,115,117,119,121,123,-1,-1,-1,-1,-1,-1,-1,-1,-1,-1,-1,-1,-1,-1,-1,-1,-1,-1,-1,-1,-1,-1,-1,-1,-1,-1,-1,-1,-1,-1,-1,-1,-1,-1,-1,-1,-1,-1,-1,-1,-1,-1,-1,-1,-1,-1,-1,-1,-1,-1,-1,-1,-1,-1,-1,-1,-1,-1,-1,-1,-1,-1],"loss_changes":[7.553552E2,1.256236E2,2.0803986E2,4.673336E1,8.736554E1,1.1461131E2,4.3009827E1,1.3831963E1,3.14606E1,3.1421886E1,4.81192E1,6.569766E1,4.06038E1,2.573117E1,2.4262184E1,6.374629E0,5.792778E0,2.2584902E1,4.813436E1,1.2746693E1,2.6639353E1,2.9560501E1,2.4087646E1,3.79797E1,3.4855515E1,2.368549E1,2.5825146E1,2.315924E1,1.19999695E1,2.1938904E1,1.3193146E1,7.7499304E0,0E0,5.106598E0,8.160515E0,1.0502287E1,1.488619E1,2.4984234E1,4.741352E0,8.25514E0,1.0762054E1,1.2280024E1,2.1966766E1,1.9755661E1,1.9187511E1,1.7327942E1,1.948126E1,3.47751E1,2.0032793E1,2.09794E1,1.9594925E1,7.328523E0,2.1273415E1,9.933292E0,2.903125E1,1.8713058E1,2.1491343E1,5.2959595E0,1.5704754E1,7.429533E0,2.1544306E1,1.2748398E1,1.1217371E1,0E0,0E0,0E0,0E0,0E0,0E0,0E0,0E0,0E0,0E0,0E0,0E0,0E0,0E0,0E0,0E0,0E0,0E0,0E0,0E0,0E0,0E0,0E0,0E0,0E0,0E0,0E0,0E0,0E0,0E0,0E0,0E0,0E0,0E0,0E0,0E0,0E0,0E0,0E0,0E0,0E0,0E0,0E0,0E0,0E0,0E0,0E0,0E0,0E0,0E0,0E0,0E0,0E0,0E0,0E0,0E0,0E0,0E0,0E0,0E0,0E0,0E0],"parents":[2147483647,0,0,1,1,2,2,3,3,4,4,5,5,6,6,7,7,8,8,9,9,10,10,11,11,12,12,13,13,14,14,15,15,16,16,17,17,18,18,19,19,20,20,21,21,22,22,23,23,24,24,25,25,26,26,27,27,28,28,29,29,30,30,31,31,33,33,34,34,35,35,36,36,37,37,38,38,39,39,40,40,41,41,42,42,43,43,44,44,45,45,46,46,47,47,48,48,49,49,50,50,51,51,52,52,53,53,54,54,55,55,56,56,57,57,58,58,59,59,60,60,61,61,62,62],"right_children":[2,4,6,8,10,12,14,16,18,20,22,24,26,28,30,32,34,36,38,40,42,44,46,48,50,52,54,56,58,60,62,64,-1,66,68,70,72,74,76,78,80,82,84,86,88,90,92,94,96,98,100,102,104,106,108,110,112,114,116,118,120,122,124,-1,-1,-1,-1,-1,-1,-1,-1,-1,-1,-1,-1,-1,-1,-1,-1,-1,-1,-1,-1,-1,-1,-1,-1,-1,-1,-1,-1,-1,-1,-1,-1,-1,-1,-1,-1,-1,-1,-1,-1,-1,-1,-1,-1,-1,-1,-1,-1,-1,-1,-1,-1,-1,-1,-1,-1,-1,-1,-1,-1,-1,-1],"split_conditions":[8.9170955E-2,3.1943095E-1,1.9742237E-1,-1.0539478E-1,-1.479041E-2,-8.564745E-2,-2.986643E-2,5.396186E-2,-1.6370685E-1,-2.53282E-2,-1.536593E-3,-1.3202475E-1,-1.89518E-2,3.66789E-1,-9.09075E-3,-9.746224E-2,-8.569421E-2,4.032289E-2,4.296847E-1,-2.927609E-1,-8.776734E-2,1.8079206E-2,-4.651049E-2,2.0304446E-3,-2.20011E-3,5.184193E-2,-8.026937E-4,7.6404495E1,4.374012E-2,-7.551041E-2,-4.20213E-2,-2.381397E-1,-4.143635E-1,1.4648484E-1,1.8635496E-1,-2.4880509E-1,-9.868582E-4,6.763285E1,-1.0868255E-1,-3.8783842E-1,3.44553E-2,-3.6385626E-1,2.515118E-2,5.013651E-1,3.2374367E-1,3.833482E-2,-3.613648E-1,4.321865E-1,-1.4609995E-1,-6.744863E-2,3.423949E-1,6.9E1,-6.624287E-2,6.763285E1,3.8462952E-1,-1.2024184E0,1.9032334E0,-1.472939E-1,5.098205E-2,-2.393672E-1,-5.8921214E-2,-1.489241E-1,1E2,3.7499106E-1,-1.7372727E-1,3.9157584E-1,-1.2175377E-1,2.3399045E-1,-1.5412611E-1,3.4881535E-1,7.2855674E-2,9.023498E-2,-4.996532E-2,-1.5439463E-2,-1.6364327E-1,4.002021E-1,-6.2963046E-2,-2.2757807E-1,1.9310415E-1,3.0927107E-2,-2.8724274E-1,3.775613E-1,7.4916236E-2,-6.3825324E-2,1.4569506E-1,-2.2086146E-1,8.906816E-2,-1.3012996E-1,-1.2080794E-2,-5.6912415E-2,-2.4716575E-1,2.3415752E-1,-2.4298593E-1,3.5152327E-2,2.6101446E-1,-1.4719997E-1,1.8198827E-2,2.3108906E-1,1.0583038E-2,1.3731438E-1,2.5765327E-1,-4.970329E-2,2.5446123E-1,-1.7555383E-1,3.6433328E-2,2.0080087E-1,4.6965208E-2,-7.467944E-2,6.857146E-2,1.1891898E-1,2.4263744E-1,-2.8200766E-1,9.869016E-2,-8.1672765E-2,3.0652317E-1,-1.5823875E-1,2.1780597E-1,1.0412279E-2,2.4505034E-1,3.1768825E-2,-2.094775E-1,1.3861254E-1,3.1556082E-1,1.0003408E-1,-5.3202903E-1],"split_indices":[12,39,12,26,47,49,59,46,49,12,59,21,55,32,55,49,51,16,32,29,59,12,44,59,56,20,54,9,26,54,58,30,0,38,34,23,47,9,17,50,34,30,45,35,32,38,40,32,14,26,32,7,21,9,35,36,41,48,42,19,49,40,2,0,0,0,0,0,0,0,0,0,0,0,0,0,0,0,0,0,0,0,0,0,0,0,0,0,0,0,0,0,0,0,0,0,0,0,0,0,0,0,0,0,0,0,0,0,0,0,0,0,0,0,0,0,0,0,0,0,0,0,0,0,0],"split_type":[0,0,0,0,0,0,0,0,0,0,0,0,0,0,0,0,0,0,0,0,0,0,0,0,0,0,0,0,0,0,0,0,0,0,0,0,0,0,0,0,0,0,0,0,0,0,0,0,0,0,0,0,0,0,0,0,0,0,0,0,0,0,0,0,0,0,0,0,0,0,0,0,0,0,0,0,0,0,0,0,0,0,0,0,0,0,0,0,0,0,0,0,0,0,0,0,0,0,0,0,0,0,0,0,0,0,0,0,0,0,0,0,0,0,0,0,0,0,0,0,0,0,0,0,0],"sum_hessian":[7.9475093E3,3.1923916E3,4.7551177E3,8.787885E2,2.313603E3,3.2339587E3,1.521159E3,7.300306E1,8.057854E2,5.4476447E2,1.7688387E3,2.0825405E3,1.1514182E3,1.0383156E3,4.828435E2,1.0506982E1,6.2496075E1,3.4588797E2,4.5989746E2,9.7674286E1,4.4709018E2,8.421756E2,9.266631E2,1.0251055E3,1.0574349E3,3.7494693E2,7.764713E2,6.378455E2,4.0047003E2,2.4699191E2,2.358516E2,7.6586456E0,2.8483365E0,2.9133879E1,3.3362194E1,5.0048634E1,2.9583936E2,4.3975998E2,2.0137478E1,1.6230019E1,8.144427E1,5.1316563E1,3.957736E2,3.158023E2,5.263733E2,8.9697424E2,2.968883E1,7.5764844E2,2.674571E2,3.102905E2,7.471445E2,2.8410475E1,3.4653647E2,1.6739072E2,6.0908057E2,4.795277E2,1.583178E2,2.5387363E2,1.4659639E2,6.103549E1,1.8595642E2,2.271879E2,8.663701E0,2.8987305E0,4.759915E0,2.7717066E1,1.416814E0,2.8234863E1,5.127331E0,2.518195E1,2.4866686E1,1.0460224E2,1.912371E2,1.6222394E2,2.7753604E2,1.8197908E1,1.9395692E0,5.5915694E0,1.0638449E1,1.0831785E1,7.061248E1,1.884183E1,3.2474735E1,3.4495773E2,5.0815872E1,2.9658334E2,1.9218945E1,3.2677133E2,1.9960196E2,4.6109886E1,8.508644E2,1.7457134E1,1.2231695E1,6.9125916E2,6.6389305E1,1.5207048E2,1.15386604E2,4.449905E1,2.6579144E2,5.919936E2,1.551509E2,1.1287454E1,1.712302E1,2.9719012E2,4.9346344E1,5.7189053E1,1.10201675E2,4.291117E2,1.7996889E2,1.7839543E2,3.0113226E2,1.3726819E1,1.4459097E2,2.8224676E0,2.5105116E2,1.0077478E1,1.3651892E2,1.671682E1,4.431867E1,1.436546E2,4.2301823E1,1.8073238E2,4.645551E1,5.1357083E0,3.527993E0],"tree_param":{"num_deleted":"0","num_feature":"61","num_nodes":"125","size_leaf_vector":"1"}},{"base_weights":[1.2649503E-3,-1.7442934E-1,3.271978E-1,-4.894707E-1,-8.218721E-2,7.331899E-1,2.629768E-1,-3.6325537E-2,-5.559026E-1,1.3509513E-1,-2.1283324E-1,-1.8369386E-1,7.986427E-1,1.6260521E-2,3.6355582E-1,-3.9433E-1,2.8376326E-1,-5.8535385E-1,2.7035117E-1,3.530651E-1,-6.5840244E-2,2.1774697E-3,-3.6416486E-1,6.9399333E-1,-9.704705E-1,8.9138234E-1,3.6560372E-1,-2.795232E-1,1.6907546E-1,1.3897702E-1,5.091376E-1,6.578667E-1,-5.60335E-1,5.788898E-1,-3.268733E-1,-3.1199187E-1,-6.7270076E-1,1.0144956E0,-3.3391073E-1,6.971826E-2,4.8382983E-1,-2.0006585E-1,1.7483437E-1,-8.615228E-2,3.49589E-1,-4.943687E-1,-1.5588638E-1,9.254204E-1,-1.840771E-1,5.1747423E-2,-1.9908303E0,4.196173E-1,9.526035E-1,5.839368E-1,-3.2926422E-1,-1.446557E-1,-9.737622E-1,-3.1683952E-1,2.564248E-1,3.4609273E-1,-1.6419703E-1,4.132381E-1,8.4300697E-1,-2.1751335E-1,3.432818E-1,1.2190474E-1,-2.2034916E-1,1.0335004E-1,3.4298074E-1,1.0669593E-1,-2.2544535E-1,7.321495E-2,-1.337812E-1,-2.1536882E-1,-6.3608396E-3,-8.4268965E-2,5.441013E-1,1.2975737E-1,-2.3585445E-1,-4.559961E-2,1.3404556E-1,1.8770713E-1,3.5112213E-2,8.502502E-2,-8.305686E-2,2.4870549E-1,2.2501437E-2,1.0988986E-1,-4.5792148E-2,3.45627E-1,7.988042E-2,-1.7219299E-1,-2.8377203E-2,-1.037549E-1,7.74991E-2,-1.733172E-1,3.489131E-1,-4.1482535E-1,1.6087648E-1,-7.3529327E-1,-1.7928267E-1,2.1918719E-1,-1.0487022E-1,2.9165885E-1,-4.5042247E-2,6.813616E-2,2.8148398E-1,8.5228555E-2,-2.6344144E-1,1.9741768E-2,-1.7317896E-1,2.8984463E-1,-3.215973E-1,-5.8788653E-3,-2.397448E-1,2.6786125E-3,1.3648959E-1,1.9866869E-1,4.6657093E-2,5.947711E-2,-1.1247713E-1,8.660583E-2,2.0626444E-1,2.6445273E-1,3.025158E-2],"categories":[],"categories_nodes":[],"categories_segments":[],"categories_sizes":[],"default_left":[0,0,0,0,0,0,0,0,0,0,0,0,0,0,0,0,0,0,0,0,0,0,0,0,0,0,0,0,0,0,0,0,0,0,0,0,0,0,0,0,0,0,0,0,0,0,0,0,0,0,0,0,0,0,0,0,0,0,0,0,0,0,0,0,0,0,0,0,0,0,0,0,0,0,0,0,0,0,0,0,0,0,0,0,0,0,0,0,0,0,0,0,0,0,0,0,0,0,0,0,0,0,0,0,0,0,0,0,0,0,0,0,0,0,0,0,0,0,0,0,0,0,0,0,0],"id":4,"left_children":[1,3,5,7,9,11,13,15,17,19,21,23,25,27,29,31,33,35,37,39,41,43,45,47,49,51,53,55,57,59,61,63,65,67,69,71,73,75,77,79,81,83,85,87,89,91,93,95,-1,97,99,101,103,105,107,109,111,113,115,117,119,121,123,-1,-1,-1,-1,-1,-1,-1,-1,-1,-1,-1,-1,-1,-1,-1,-1,-1,-1,-1,-1,-1,-1,-1,-1,-1,-1,-1,-1,-1,-1,-1,-1,-1,-1,-1,-1,-1,-1,-1,-1,-1,-1,-1,-1,-1,-1,-1,-1,-1,-1,-1,-1,-1,-1,-1,-1,-1,-1,-1,-1,-1,-1],"loss_changes":[4.3762195E2,1.4425693E2,6.9595825E1,3.3827515E1,1.0909443E2,2.2052048E1,5.7380722E1,1.6708578E1,2.4019257E1,6.3236916E1,7.808481E1,1.8029396E1,1.3363724E1,3.0367483E1,5.3640762E1,1.2383287E1,1.4074125E1,2.2404846E1,1.5821522E1,2.5623276E1,2.432296E1,3.0481102E1,3.81187E1,4.3394127E0,1.4361411E1,7.688904E0,9.571345E0,2.1289635E1,1.888047E1,4.071402E1,3.1552307E1,7.444101E0,1.0391914E1,6.52503E0,7.7278786E0,1.732947E1,2.1093872E1,1.673982E1,7.1876726E0,1.8447695E1,2.457135E1,1.8015356E1,1.755209E1,2.3880362E1,1.3156637E1,2.7513382E1,4.283594E1,4.5966396E0,0E0,6.165158E0,2.9373837E0,8.378386E0,5.484726E0,5.780098E0,5.44073E0,1.759436E1,8.097141E0,9.723733E0,1.8470821E1,2.3092163E1,2.0198618E1,2.631337E1,6.2365723E0,0E0,0E0,0E0,0E0,0E0,0E0,0E0,0E0,0E0,0E0,0E0,0E0,0E0,0E0,0E0,0E0,0E0,0E0,0E0,0E0,0E0,0E0,0E0,0E0,0E0,0E0,0E0,0E0,0E0,0E0,0E0,0E0,0E0,0E0,0E0,0E0,0E0,0E0,0E0,0E0,0E0,0E0,0E0,0E0,0E0,0E0,0E0,0E0,0E0,0E0,0E0,0E0,0E0,0E0,0E0,0E0,0E0,0E0,0E0,0E0,0E0,0E0],"parents":[2147483647,0,0,1,1,2,2,3,3,4,4,5,5,6,6,7,7,8,8,9,9,10,10,11,11,12,12,13,13,14,14,15,15,16,16,17,17,18,18,19,19,20,20,21,21,22,22,23,23,24,24,25,25,26,26,27,27,28,28,29,29,30,30,31,31,32,32,33,33,34,34,35,35,36,36,37,37,38,38,39,39,40,40,41,41,42,42,43,43,44,44,45,45,46,46,47,47,49,49,50,50,51,51,52,52,53,53,54,54,55,55,56,56,57,57,58,58,59,59,60,60,61,61,62,62],"right_children":[2,4,6,8,10,12,14,16,18,20,22,24,26,28,30,32,34,36,38,40,42,44,46,48,50,52,54,56,58,60,62,64,66,68,70,72,74,76,78,80,82,84,86,88,90,92,94,96,-1,98,100,102,104,106,108,110,112,114,116,118,120,122,124,-1,-1,-1,-1,-1,-1,-1,-1,-1,-1,-1,-1,-1,-1,-1,-1,-1,-1,-1,-1,-1,-1,-1,-1,-1,-1,-1,-1,-1,-1,-1,-1,-1,-1,-1,-1,-1,-1,-1,-1,-1,-1,-1,-1,-1,-1,-1,-1,-1,-1,-1,-1,-1,-1,-1,-1,-1,-1,-1,-1,-1,-1],"split_conditions":[1.4759773E-1,1.500377E-2,-3.5505034E-2,9.389984E-2,4.5314306E-1,-2.9106122E-1,2.7253616E-1,-2.802929E-2,2.1454109E-1,3.140923E-2,-3.482631E-2,-3.4095302E-1,-3.608535E-3,-1.5190955E-1,2.305502E-2,8.15322E-3,1.1345543E-1,-1.8807821E-1,-2.845377E-1,-1.9354336E-1,3.479047E-1,2.6027448E0,3.3053237E-1,1.366271E-2,5.436463E-2,1.6800162E-1,-1.0874488E0,-2.0176852E-1,-1.848414E-2,4.61182E-2,1.4793006E-1,-5.0516754E-1,-4.1487548E-1,1.13742E-1,8.009908E-2,5.567673E-2,4.4012338E-1,1.3446298E-1,1.4966254E-1,1.7249608E-1,-8.671752E-2,2.5923282E-2,5.434449E-2,-3.48874E-2,-5.270437E-1,-1.067685E-1,5.04819E-2,-1.703456E-1,-1.840771E-1,-3.001947E-1,-2.348588E-2,4.9772964E0,4.36E1,-1.6147318E-1,-1.0370122E-1,-4.326387E-2,-4.8349404E-1,1.4573495E-1,-2.0984453E-1,-1.0248823E-1,6.709956E1,3.9065352E-1,1.854678E-1,-2.1751335E-1,3.432818E-1,1.2190474E-1,-2.2034916E-1,1.0335004E-1,3.4298074E-1,1.0669593E-1,-2.2544535E-1,7.321495E-2,-1.337812E-1,-2.1536882E-1,-6.3608396E-3,-8.4268965E-2,5.441013E-1,1.2975737E-1,-2.3585445E-1,-4.559961E-2,1.3404556E-1,1.8770713E-1,3.5112213E-2,8.502502E-2,-8.305686E-2,2.4870549E-1,2.2501437E-2,1.0988986E-1,-4.5792148E-2,3.45627E-1,7.988042E-2,-1.7219299E-1,-2.8377203E-2,-1.037549E-1,7.74991E-2,-1.733172E-1,3.489131E-1,-4.1482535E-1,1.6087648E-1,-7.3529327E-1,-1.7928267E-1,2.1918719E-1,-1.0487022E-1,2.9165885E-1,-4.5042247E-2,6.813616E-2,2.8148398E-1,8.5228555E-2,-2.6344144E-1,1.9741768E-2,-1.7317896E-1,2.8984463E-1,-3.215973E-1,-5.8788653E-3,-2.397448E-1,2.6786125E-3,1.3648959E-1,1.9866869E-1,4.6657093E-2,5.947711E-2,-1.1247713E-1,8.660583E-2,2.0626444E-1,2.6445273E-1,3.025158E-2],"split_indices":[12,12,38,33,25,14,32,12,55,26,59,17,49,21,56,60,54,49,29,14,15,41,32,57,56,32,36,29,56,26,48,37,44,28,52,16,15,52,34,11,13,38,16,47,17,14,56,21,0,17,18,8,10,14,13,13,17,27,40,53,9,32,54,0,0,0,0,0,0,0,0,0,0,0,0,0,0,0,0,0,0,0,0,0,0,0,0,0,0,0,0,0,0,0,0,0,0,0,0,0,0,0,0,0,0,0,0,0,0,0,0,0,0,0,0,0,0,0,0,0,0,0,0,0,0],"split_type":[0,0,0,0,0,0,0,0,0,0,0,0,0,0,0,0,0,0,0,0,0,0,0,0,0,0,0,0,0,0,0,0,0,0,0,0,0,0,0,0,0,0,0,0,0,0,0,0,0,0,0,0,0,0,0,0,0,0,0,0,0,0,0,0,0,0,0,0,0,0,0,0,0,0,0,0,0,0,0,0,0,0,0,0,0,0,0,0,0,0,0,0,0,0,0,0,0,0,0,0,0,0,0,0,0,0,0,0,0,0,0,0,0,0,0,0,0,0,0,0,0,0,0,0,0],"sum_hessian":[7.640114E3,4.9644756E3,2.6756387E3,1.123386E3,3.8410894E3,3.640121E2,2.3116265E3,1.4383127E2,9.7955475E2,1.4423043E3,2.3987852E3,2.4133667E1,3.3987842E2,6.697989E2,1.6418276E3,6.778497E1,7.604629E1,9.4612244E2,3.3432312E1,6.914637E2,7.5084064E2,9.913164E2,1.4074686E3,1.1463505E1,1.2670163E1,2.7905713E2,6.082131E1,2.2788426E2,4.419146E2,6.464889E2,9.9533875E2,8.833332E0,5.8951645E1,5.130303E1,2.4743261E1,2.3021394E2,7.159085E2,1.4677799E1,1.875451E1,2.1882881E2,4.726349E2,4.821253E2,2.687153E2,7.909648E2,2.0035162E2,8.65213E2,5.422556E2,9.98801E0,1.4754944E0,6.8035293E0,5.8666334E0,3.2955906E1,2.4610121E2,4.640129E1,1.4420015E1,1.9182703E2,3.6057224E1,6.693502E1,3.7497958E2,3.8400876E2,2.6248013E2,7.749753E2,2.2036342E2,2.1708176E0,6.662514E0,8.79607E0,5.0155575E1,3.7386585E1,1.3916443E1,9.551861E0,1.51914015E1,4.4531265E1,1.8568268E2,6.693714E2,4.6537098E1,5.8477054E0,8.830094E0,6.976139E0,1.1778373E1,1.3818156E2,8.064725E1,3.4030972E2,1.3232518E2,6.5710724E1,4.1641458E2,3.4610188E1,2.3410512E2,1.0076315E2,6.9020166E2,1.7638664E1,1.8271295E2,7.211704E2,1.4404257E2,3.7187546E2,1.7038017E2,1.1680381E0,8.819972E0,1.2496667E0,5.5538626E0,3.8393672E0,2.0272663E0,2.3503002E1,9.452904E0,2.4192136E2,4.1798677E0,2.3937588E1,2.2463703E1,7.0377855E0,7.3822293E0,1.2961688E2,6.221015E1,1.3119483E0,3.4745274E1,4.205656E1,2.487846E1,1.6737663E2,2.0760297E2,1.4349275E2,2.4051602E2,9.6521126E1,1.6595901E2,5.3438654E2,2.4058879E2,2.0931679E2,1.1046631E1],"tree_param":{"num_deleted":"0","num_feature":"61","num_nodes":"125","size_leaf_vector":"1"}},{"base_weights":[1.2658779E-3,-1.1882213E-1,2.75818E-1,2.3664945E-1,-1.7959172E-1,4.8121902E-1,1.6250964E-1,4.8748586E-1,1.2758398E-1,-6.260618E-2,-3.7018624E-1,1.21722475E-1,5.454075E-1,9.429196E-2,6.0224533E-1,5.3539747E-1,-7.195087E-1,6.3249063E-1,4.5229066E-2,2.6622906E-1,-1.3652492E-1,-4.7554126E-1,-8.9090854E-2,3.1733486E-1,-3.967361E-1,-2.800846E-1,5.7338864E-1,-2.5611946E-1,1.8091285E-1,7.674337E-1,2.87528E-1,3.6045352E-1,8.530849E-1,2.5606418E-1,-1.2770479E0,6.409074E-2,9.121665E-1,7.085407E-1,-1.7218592E-2,1.9230796E-1,9.5412064E-1,-2.7021492E-1,2.5338802E-2,-5.095011E-1,2.4837005E-1,-3.3223894E-1,1.6618581E-1,-2.6452309E-2,6.165178E-1,5.7634306E-1,-6.8203825E-1,6.0763526E-1,-8.293839E-1,6.839664E-1,3.3653513E-1,4.197919E-2,-5.2211165E-1,3.8370755E-1,4.7756262E-2,-2.1498127E-1,8.419078E-1,-3.580382E-1,6.360217E-1,3.9535E-2,2.615051E-1,2.8061914E-1,-8.223159E-2,2.7308643E-1,-1.4034362E-1,-5.291295E-1,5.7650333E-5,-1.7698342E-1,1.9445887E-1,-1.2291389E-1,2.9534465E-1,3.256901E-1,2.2134252E-2,-4.35794E-2,1.05014466E-1,9.841088E-2,-3.738217E-2,3.6129856E-1,1.02054365E-1,8.657455E-3,-1.0985038E-1,-3.3591226E-2,9.498649E-2,-8.161983E-2,-1.8250707E-1,-1.3381888E-1,1.7841485E-1,-1.7956929E-1,-1.1979753E-2,-1.722965E-2,1.4474688E-1,9.937934E-2,-1.8226235E-1,2.1644081E-1,-2.8941056E-1,-3.188746E-2,3.4777796E-1,3.0282477E-1,-2.702987E-1,2.5287795E-1,-1.7701207E-1,-3.4148026E-1,2.8728184E-1,2.2396891E-1,5.9914146E-2,5.313517E-2,2.5059286E-1,-1.9227745E-1,6.9307916E-2,1.1641709E-2,-2.2759981E-1,5.4069255E-2,1.879725E-1,-1.09507695E-1,3.9836578E-2,-2.1383663E-1,2.787339E-1,1.5140049E-1,2.885879E-1,-2.1728769E-2,-5.797335E-1,-6.820081E-2,2.6117998E-1],"categories":[],"categories_nodes":[],"categories_segments":[],"categories_sizes":[],"default_left":[0,0,0,0,0,0,0,0,0,0,0,0,0,0,0,0,0,0,0,0,0,0,0,0,0,0,0,0,0,0,0,0,0,0,0,0,0,0,0,0,0,0,0,0,0,0,0,0,0,0,0,0,0,0,0,0,0,0,0,0,0,0,0,0,0,0,0,0,0,0,0,0,0,0,0,0,0,0,0,0,0,0,0,0,0,0,0,0,0,0,0,0,0,0,0,0,0,0,0,0,0,0,0,0,0,0,0,0,0,0,0,0,0,0,0,0,0,0,0,0,0,0,0,0,0,0,0],"id":5,"left_children":[1,3,5,7,9,11,13,15,17,19,21,23,25,27,29,31,33,35,37,39,41,43,45,47,49,51,53,55,57,59,61,63,65,67,69,71,73,75,77,79,81,83,85,87,89,91,93,95,97,99,101,103,105,107,109,111,113,115,117,119,121,123,125,-1,-1,-1,-1,-1,-1,-1,-1,-1,-1,-1,-1,-1,-1,-1,-1,-1,-1,-1,-1,-1,-1,-1,-1,-1,-1,-1,-1,-1,-1,-1,-1,-1,-1,-1,-1,-1,-1,-1,-1,-1,-1,-1,-1,-1,-1,-1,-1,-1,-1,-1,-1,-1,-1,-1,-1,-1,-1,-1,-1,-1,-1,-1,-1],"loss_changes":[2.4337816E2,1.1097852E2,5.219992E1,2.0461246E1,9.777707E1,1.8349686E1,4.341469E1,1.3511578E1,2.1768713E1,6.61323E1,4.935771E1,1.251868E1,1.5795319E1,3.8161232E1,9.887558E0,1.1858013E1,5.2727747E0,1.1615391E1,1.8725586E1,2.521103E1,4.8064014E1,2.994925E1,2.8358414E1,9.198975E0,9.809694E0,1.16526985E1,1.6925217E1,1.9789505E1,2.718554E1,9.466255E0,1.5644323E1,1.6589508E1,7.4007454E0,2.3863194E0,3.7011127E0,1.0044924E1,5.1010094E0,9.230228E0,1.9514181E1,1.9491852E1,6.9953957E0,3.4915718E1,4.0249985E1,2.7039917E1,1.3500919E1,1.8182978E1,1.5808744E1,9.035725E0,8.624598E0,3.3989418E0,1.0793074E1,3.122821E0,9.119396E0,1.3357422E1,1.6585096E1,1.544416E1,1.7520279E1,1.9612518E1,2.1433563E1,6.2091713E0,4.29879E0,1.0950237E1,9.283663E0,0E0,0E0,0E0,0E0,0E0,0E0,0E0,0E0,0E0,0E0,0E0,0E0,0E0,0E0,0E0,0E0,0E0,0E0,0E0,0E0,0E0,0E0,0E0,0E0,0E0,0E0,0E0,0E0,0E0,0E0,0E0,0E0,0E0,0E0,0E0,0E0,0E0,0E0,0E0,0E0,0E0,0E0,0E0,0E0,0E0,0E0,0E0,0E0,0E0,0E0,0E0,0E0,0E0,0E0,0E0,0E0,0E0,0E0,0E0,0E0,0E0,0E0,0E0,0E0],"parents":[2147483647,0,0,1,1,2,2,3,3,4,4,5,5,6,6,7,7,8,8,9,9,10,10,11,11,12,12,13,13,14,14,15,15,16,16,17,17,18,18,19,19,20,20,21,21,22,22,23,23,24,24,25,25,26,26,27,27,28,28,29,29,30,30,31,31,32,32,33,33,34,34,35,35,36,36,37,37,38,38,39,39,40,40,41,41,42,42,43,43,44,44,45,45,46,46,47,47,48,48,49,49,50,50,51,51,52,52,53,53,54,54,55,55,56,56,57,57,58,58,59,59,60,60,61,61,62,62],"right_children":[2,4,6,8,10,12,14,16,18,20,22,24,26,28,30,32,34,36,38,40,42,44,46,48,50,52,54,56,58,60,62,64,66,68,70,72,74,76,78,80,82,84,86,88,90,92,94,96,98,100,102,104,106,108,110,112,114,116,118,120,122,124,126,-1,-1,-1,-1,-1,-1,-1,-1,-1,-1,-1,-1,-1,-1,-1,-1,-1,-1,-1,-1,-1,-1,-1,-1,-1,-1,-1,-1,-1,-1,-1,-1,-1,-1,-1,-1,-1,-1,-1,-1,-1,-1,-1,-1,-1,-1,-1,-1,-1,-1,-1,-1,-1,-1,-1,-1,-1,-1,-1,-1,-1,-1,-1,-1],"split_conditions":[1.5900831E-1,-8.776734E-2,-1.58939E-1,-2.1021664E-1,5.2876985E-1,2.0979339E-1,2.877164E-1,-1.665505E-1,4.2340426E0,-2.474269E-2,4.0063012E-1,7.608696E1,-9.475136E-2,-1.9657388E-1,9.901838E-3,3.5786662E-1,1.2174086E-1,1.865735E-1,6.091535E-2,1.96E2,3.3626926E-1,-4.905716E-2,7.258455E-2,4.738652E-2,-4.1007566E-1,4.214959E-2,1.9897467E-1,-2.3021221E-1,6.7361115E1,-7.640786E-2,1.3113637E-1,-1.2439581E-1,4.968283E-2,1.0885224E-1,-1.1324358E0,-3.120716E-1,-3.4687695E-1,-2.9310644E-2,3.6181706E-1,-1.9423184E-1,1E1,3.9650127E-2,1.0712963E-1,3.47047E-2,1.772152E1,3.6181706E-1,2.94472E-3,3.293983E-2,3.2255343E-1,1.0323165E-1,-1.6672091E-1,6.65726E-2,1.5758412E-1,-3.218329E-2,-1.987623E-1,2.857268E-2,4.8923442E-1,-2.2559628E-1,-3.238535E-2,-2.8649455E-1,5.19394E-3,1.1862309E-1,1.8892953E-3,3.9535E-2,2.615051E-1,2.8061914E-1,-8.223159E-2,2.7308643E-1,-1.4034362E-1,-5.291295E-1,5.7650333E-5,-1.7698342E-1,1.9445887E-1,-1.2291389E-1,2.9534465E-1,3.256901E-1,2.2134252E-2,-4.35794E-2,1.05014466E-1,9.841088E-2,-3.738217E-2,3.6129856E-1,1.02054365E-1,8.657455E-3,-1.0985038E-1,-3.3591226E-2,9.498649E-2,-8.161983E-2,-1.8250707E-1,-1.3381888E-1,1.7841485E-1,-1.7956929E-1,-1.1979753E-2,-1.722965E-2,1.4474688E-1,9.937934E-2,-1.8226235E-1,2.1644081E-1,-2.8941056E-1,-3.188746E-2,3.4777796E-1,3.0282477E-1,-2.702987E-1,2.5287795E-1,-1.7701207E-1,-3.4148026E-1,2.8728184E-1,2.2396891E-1,5.9914146E-2,5.313517E-2,2.5059286E-1,-1.9227745E-1,6.9307916E-2,1.1641709E-2,-2.2759981E-1,5.4069255E-2,1.879725E-1,-1.09507695E-1,3.9836578E-2,-2.1383663E-1,2.787339E-1,1.5140049E-1,2.885879E-1,-2.1728769E-2,-5.797335E-1,-6.820081E-2,2.6117998E-1],"split_indices":[12,59,49,49,25,32,12,50,8,26,15,9,56,21,54,35,33,42,60,7,15,14,48,31,17,38,16,58,9,28,42,19,58,16,36,23,14,13,32,30,5,46,48,46,10,32,55,47,11,42,26,59,48,58,17,24,25,40,56,58,46,42,56,0,0,0,0,0,0,0,0,0,0,0,0,0,0,0,0,0,0,0,0,0,0,0,0,0,0,0,0,0,0,0,0,0,0,0,0,0,0,0,0,0,0,0,0,0,0,0,0,0,0,0,0,0,0,0,0,0,0,0,0,0,0,0,0],"split_type":[0,0,0,0,0,0,0,0,0,0,0,0,0,0,0,0,0,0,0,0,0,0,0,0,0,0,0,0,0,0,0,0,0,0,0,0,0,0,0,0,0,0,0,0,0,0,0,0,0,0,0,0,0,0,0,0,0,0,0,0,0,0,0,0,0,0,0,0,0,0,0,0,0,0,0,0,0,0,0,0,0,0,0,0,0,0,0,0,0,0,0,0,0,0,0,0,0,0,0,0,0,0,0,0,0,0,0,0,0,0,0,0,0,0,0,0,0,0,0,0,0,0,0,0,0,0,0],"sum_hessian":[7.379719E3,5.1344834E3,2.2452354E3,7.49192E2,4.3852915E3,7.970774E2,1.448158E3,2.259854E2,5.2320667E2,2.7182053E3,1.6670863E3,1.211964E2,6.75881E2,1.254723E3,1.9343498E2,2.1789258E2,8.092822E0,7.2435356E1,4.507713E2,4.984035E2,2.2198018E3,1.212098E3,4.5498822E2,8.827755E1,3.291885E1,2.186339E1,6.5401764E2,2.4830138E2,1.00642163E3,1.25909355E2,6.752563E1,1.4189082E2,7.6001755E1,3.139718E0,4.9531035E0,2.4292864E1,4.8142494E1,3.78962E1,4.128751E2,4.5119724E2,4.7206272E1,1.2153358E3,1.00446606E3,1.1580675E3,5.4030605E1,2.328755E2,2.221127E2,4.1500946E1,4.6776608E1,7.232131E0,2.5686718E1,8.316667E0,1.3546723E1,4.4457498E2,2.0944264E2,1.17481514E2,1.3081987E2,3.9815628E2,6.082654E2,8.739305E0,1.1717005E2,2.3663273E1,4.3862354E1,9.8907745E1,4.298307E1,7.098805E1,5.013698E0,1.5139362E0,1.625782E0,3.3106117E0,1.6424918E0,1.14556875E1,1.2837176E1,2.2551055E0,4.588739E1,2.3327614E1,1.4568585E1,3.0658868E2,1.0628641E2,3.1587802E2,1.353192E2,3.2854816E1,1.4351454E1,2.9537842E2,9.1995734E2,6.830804E2,3.213857E2,3.4152756E2,8.165399E2,1.7884268E1,3.6146336E1,1.2130486E2,1.1157063E2,1.3060033E2,9.1512375E1,2.5953789E1,1.5547159E1,4.4374996E1,2.4016101E0,3.707756E0,3.524375E0,2.53026E0,2.3156458E1,7.198643E0,1.1180233E0,1.1859771E1,1.6869525E0,3.932058E2,5.1369167E1,1.5974133E2,4.9701305E1,2.4952854E1,9.2528656E1,3.9053116E1,9.176675E1,2.1759506E2,1.8056122E2,1.03336174E2,5.0492917E2,6.3523254E0,2.386979E0,3.2126568E1,8.504348E1,2.091512E1,2.7481523E0,9.377956E0,3.4484398E1],"tree_param":{"num_deleted":"0","num_feature":"61","num_nodes":"127","size_leaf_vector":"1"}},{"base_weights":[2.0278092E-3,-1.9291016E-1,1.1459375E-1,-2.5836602E-1,1.3169417E-1,3.5845304E-1,4.253637E-2,-3.439351E-1,4.007343E-2,-1.6305628E-1,3.548013E-1,5.831331E-1,2.0564626E-1,2.6274812E-1,-3.7541613E-2,-4.3387455E-1,-3.7566677E-2,-2.0580119E-2,8.4882545E-1,1.5480544E-1,-5.3296363E-1,1.1650499E0,2.8663906E-1,6.494939E-1,-8.956398E-2,5.799652E-1,1.0306891E-1,4.371431E-2,4.418179E-1,-1.3863856E-1,1.6953038E-1,-2.664175E-1,-6.208772E-1,5.514925E-1,-1.345521E-1,-1.3810451E-1,3.251831E-1,-6.1638534E-1,1.0613801E0,5.2809393E-1,-1.2625147E-1,1.0409805E-3,-7.6787513E-1,1.5569005E0,5.3438053E-2,6.914969E-1,1.6518825E-1,3.755478E-1,7.665162E-1,2.3047927E-1,-1.0286863E0,2.697499E-1,8.978726E-1,-2.8221682E-2,4.279359E-1,3.8953084E-1,-1.2354272E-1,7.3428124E-1,3.2389793E-1,1.5166049E-1,-2.4337266E-1,8.986857E-2,6.0795814E-1,-4.6549812E-2,-1.5972155E-1,-1.9992188E-1,2.2941351E-2,2.7019124E-2,3.2814103E-1,-7.980117E-2,1.049106E-1,8.8068925E-2,-7.850616E-2,1.6186196E-1,-2.2912407E-1,1.2398257E-1,-3.454374E-1,4.3680158E-1,1.6858487E-1,-2.2114262E-1,1.8863317E-1,-1.4694656E-1,1.2173046E-1,3.5759658E-1,-6.0691867E-2,-9.345679E-2,-2.8537163E-1,2.4933409E-2,5.0629264E-1,-2.0583421E-1,3.1853753E-1,1.2759843E-1,3.9816558E-1,3.2270133E-2,3.0194607E-1,-1.9807161E-1,1.4707015E-1,2.7574655E-1,1.5688746E-1,-3.8157976E-1,1.12602815E-1,-5.292929E-1,-2.5273627E-2,1.4306222E-1,-3.2019612E-1,-2.8213602E-1,2.8800508E-1,-9.525904E-2,5.3643413E-2,-9.0000175E-2,1.6473958E-1,1.1696738E-2,2.0034747E-1,6.727461E-2,-8.777006E-2,2.3847712E-2,2.6019624E-1,1.744514E-1,2.6065616E-2,1.2712483E-1,-3.2196473E-3,-1.0290652E-1,1.6885243E-2,-3.1697206E-2,7.503754E-2,1.1478369E-1,3.1670085E-1],"categories":[],"categories_nodes":[],"categories_segments":[],"categories_sizes":[],"default_left":[0,0,0,0,0,0,0,0,0,0,0,0,0,0,0,0,0,0,0,0,0,0,0,0,0,0,0,0,0,0,0,0,0,0,0,0,0,0,0,0,0,0,0,0,0,0,0,0,0,0,0,0,0,0,0,0,0,0,0,0,0,0,0,0,0,0,0,0,0,0,0,0,0,0,0,0,0,0,0,0,0,0,0,0,0,0,0,0,0,0,0,0,0,0,0,0,0,0,0,0,0,0,0,0,0,0,0,0,0,0,0,0,0,0,0,0,0,0,0,0,0,0,0,0,0,0,0],"id":6,"left_children":[1,3,5,7,9,11,13,15,17,19,21,23,25,27,29,31,33,35,37,39,41,43,45,47,49,51,53,55,57,59,61,63,65,67,69,71,73,75,77,79,81,83,85,87,89,91,93,95,97,99,101,103,105,107,109,111,113,115,117,119,121,123,125,-1,-1,-1,-1,-1,-1,-1,-1,-1,-1,-1,-1,-1,-1,-1,-1,-1,-1,-1,-1,-1,-1,-1,-1,-1,-1,-1,-1,-1,-1,-1,-1,-1,-1,-1,-1,-1,-1,-1,-1,-1,-1,-1,-1,-1,-1,-1,-1,-1,-1,-1,-1,-1,-1,-1,-1,-1,-1,-1,-1,-1,-1,-1,-1],"loss_changes":[1.5755318E2,5.5878952E1,7.996566E1,5.5879272E1,2.9105934E1,3.551906E1,6.1986652E1,4.683336E1,2.3973522E1,2.2539133E1,1.3568754E1,1.8791992E1,2.3722773E1,3.67461E1,5.399721E1,4.0991608E1,2.2181002E1,1.854508E1,1.127239E1,1.0925088E1,1.1101852E1,8.283241E0,1.1368217E1,1.1961365E1,1.1826779E1,1.2875313E1,2.079982E1,2.4499544E1,1.7544456E1,5.2726765E1,2.950175E1,2.0487488E1,1.9740753E1,1.3639433E1,2.1294022E1,1.8240355E1,2.7439384E1,3.2041204E0,5.122448E0,6.151041E0,1.1775262E1,7.030427E0,4.8465195E0,2.5892715E0,5.2339067E0,8.500723E0,8.663569E0,1.4142271E1,9.436874E0,6.9145494E0,6.7877455E0,1.954841E1,8.358437E0,2.0903212E1,1.2545872E1,1.3441256E1,1.6859962E1,1.2768799E1,2.2494385E1,2.0333126E1,3.80587E1,2.250286E1,1.2706501E1,0E0,0E0,0E0,0E0,0E0,0E0,0E0,0E0,0E0,0E0,0E0,0E0,0E0,0E0,0E0,0E0,0E0,0E0,0E0,0E0,0E0,0E0,0E0,0E0,0E0,0E0,0E0,0E0,0E0,0E0,0E0,0E0,0E0,0E0,0E0,0E0,0E0,0E0,0E0,0E0,0E0,0E0,0E0,0E0,0E0,0E0,0E0,0E0,0E0,0E0,0E0,0E0,0E0,0E0,0E0,0E0,0E0,0E0,0E0,0E0,0E0,0E0,0E0,0E0],"parents":[2147483647,0,0,1,1,2,2,3,3,4,4,5,5,6,6,7,7,8,8,9,9,10,10,11,11,12,12,13,13,14,14,15,15,16,16,17,17,18,18,19,19,20,20,21,21,22,22,23,23,24,24,25,25,26,26,27,27,28,28,29,29,30,30,31,31,32,32,33,33,34,34,35,35,36,36,37,37,38,38,39,39,40,40,41,41,42,42,43,43,44,44,45,45,46,46,47,47,48,48,49,49,50,50,51,51,52,52,53,53,54,54,55,55,56,56,57,57,58,58,59,59,60,60,61,61,62,62],"right_children":[2,4,6,8,10,12,14,16,18,20,22,24,26,28,30,32,34,36,38,40,42,44,46,48,50,52,54,56,58,60,62,64,66,68,70,72,74,76,78,80,82,84,86,88,90,92,94,96,98,100,102,104,106,108,110,112,114,116,118,120,122,124,126,-1,-1,-1,-1,-1,-1,-1,-1,-1,-1,-1,-1,-1,-1,-1,-1,-1,-1,-1,-1,-1,-1,-1,-1,-1,-1,-1,-1,-1,-1,-1,-1,-1,-1,-1,-1,-1,-1,-1,-1,-1,-1,-1,-1,-1,-1,-1,-1,-1,-1,-1,-1,-1,-1,-1,-1,-1,-1,-1,-1,-1,-1,-1,-1],"split_conditions":[8.240692E-2,-1.2223463E-1,-2.231584E-2,-9.432587E-2,-2.505074E-2,9.958917E-2,7.881399E-2,3.6298874E-1,1.127802E-1,-5.958939E-2,-4.7664502E-1,4.50391E-3,-1.0746116E-1,3.3923656E-1,-1.963775E-1,3.822585E-2,4.4589072E-1,2.2864993E-1,-6.465305E-2,-2.3052404E-2,4.922271E-2,-3.6256027E-1,-1.5464434E-1,2.4922934E-1,3.076923E1,2.958904E-1,1.215786E-2,-9.211937E-2,-1.6126317E-1,-1.2151848E-1,2.16E2,-4.20484E-2,-8.349463E-2,-2.2122821E-1,7.982946E-2,5.33104E-3,3.6957756E-2,2.4466118E-1,-2.6532434E-2,-2.4786523E-1,1.85E2,1.9283906E-1,-3.46881E-1,-4.0128835E-2,5.2E1,1.64E2,2.0920844E-1,-4.6774935E-2,-4.939958E-3,-2.9106122E-1,-1.0807779E-1,-2.2841462E-1,-1.0080872E-1,-1.5169206E-1,-8.697804E-2,-1.3162513E-1,-3.0453995E-1,2.8315413E-1,-3.6291704E-1,-3.308318E-1,4.165374E-1,3.0740494E-1,1.366271E-2,-4.6549812E-2,-1.5972155E-1,-1.9992188E-1,2.2941351E-2,2.7019124E-2,3.2814103E-1,-7.980117E-2,1.049106E-1,8.8068925E-2,-7.850616E-2,1.6186196E-1,-2.2912407E-1,1.2398257E-1,-3.454374E-1,4.3680158E-1,1.6858487E-1,-2.2114262E-1,1.8863317E-1,-1.4694656E-1,1.2173046E-1,3.5759658E-1,-6.0691867E-2,-9.345679E-2,-2.8537163E-1,2.4933409E-2,5.0629264E-1,-2.0583421E-1,3.1853753E-1,1.2759843E-1,3.9816558E-1,3.2270133E-2,3.0194607E-1,-1.9807161E-1,1.4707015E-1,2.7574655E-1,1.5688746E-1,-3.8157976E-1,1.12602815E-1,-5.292929E-1,-2.5273627E-2,1.4306222E-1,-3.2019612E-1,-2.8213602E-1,2.8800508E-1,-9.525904E-2,5.3643413E-2,-9.0000175E-2,1.6473958E-1,1.1696738E-2,2.0034747E-1,6.727461E-2,-8.777006E-2,2.3847712E-2,2.6019624E-1,1.744514E-1,2.6065616E-2,1.2712483E-1,-3.2196473E-3,-1.0290652E-1,1.6885243E-2,-3.1697206E-2,7.503754E-2,1.1478369E-1,3.1670085E-1],"split_indices":[12,14,26,21,45,33,16,32,18,13,17,49,59,35,40,47,25,11,55,59,16,37,13,32,10,15,55,53,49,53,7,13,44,14,56,28,13,15,59,51,0,15,29,12,4,2,48,28,54,14,53,29,48,14,56,14,44,15,17,30,15,35,57,0,0,0,0,0,0,0,0,0,0,0,0,0,0,0,0,0,0,0,0,0,0,0,0,0,0,0,0,0,0,0,0,0,0,0,0,0,0,0,0,0,0,0,0,0,0,0,0,0,0,0,0,0,0,0,0,0,0,0,0,0,0,0,0],"split_type":[0,0,0,0,0,0,0,0,0,0,0,0,0,0,0,0,0,0,0,0,0,0,0,0,0,0,0,0,0,0,0,0,0,0,0,0,0,0,0,0,0,0,0,0,0,0,0,0,0,0,0,0,0,0,0,0,0,0,0,0,0,0,0,0,0,0,0,0,0,0,0,0,0,0,0,0,0,0,0,0,0,0,0,0,0,0,0,0,0,0,0,0,0,0,0,0,0,0,0,0,0,0,0,0,0,0,0,0,0,0,0,0,0,0,0,0,0,0,0,0,0,0,0,0,0,0,0],"sum_hessian":[7.1779814E3,2.6273352E3,4.550646E3,2.1866128E3,4.4072244E2,1.0370494E3,3.5135964E3,1.6992488E3,4.87364E2,1.8999118E2,2.5073126E2,4.1865796E2,6.183915E2,9.363592E2,2.5772373E3,1.313294E3,3.8595493E2,4.5426993E2,3.3094086E1,1.0249696E2,8.7494225E1,1.8207333E1,2.3252393E2,3.8109763E2,3.7560345E1,1.3201105E2,4.8638046E2,4.2174057E2,5.1461865E2,1.7319789E3,8.452584E2,6.94135E2,6.191589E2,5.3899548E1,3.320554E2,3.3948132E2,1.14788605E2,3.951965E0,2.9142122E1,4.364735E1,5.8849613E1,2.7034508E1,6.0459717E1,1.3165741E1,5.041591E0,5.2574047E1,1.7994989E2,1.15327705E2,2.657699E2,2.8576385E1,8.983958E0,6.774943E1,6.426162E1,3.4704147E2,1.3933899E2,1.3705013E2,2.8469043E2,1.4636916E2,3.6824948E2,4.5907623E2,1.2729026E3,7.163106E2,1.2894781E2,4.905443E2,2.0359071E2,5.812539E2,3.790493E1,2.9751427E1,2.414812E1,2.6151678E2,7.05386E1,7.52526E1,2.642287E2,9.6330414E1,1.8458195E1,1.4292442E0,2.5227208E0,1.5209223E1,1.3932899E1,2.7513347E0,4.0896015E1,3.500636E1,2.3843252E1,3.2337132E0,2.3800795E1,1.8103334E1,4.2356384E1,1.2060609E0,1.195968E1,3.0928137E0,1.9487777E0,3.8234703E1,1.4339346E1,1.6947058E2,1.0479303E1,1.1022363E1,1.0430534E2,1.6167412E2,1.0409579E2,1.8288409E0,2.6747543E1,4.5622954E0,4.421663E0,5.921919E1,8.530237E0,1.6391648E0,6.2622456E1,1.4453468E2,2.0250679E2,1.9677174E1,1.1966181E2,6.1156693E1,7.589344E1,9.300094E1,1.9168948E2,2.4986937E1,1.2138222E2,1.7576198E2,1.924875E2,1.7098366E2,2.8809256E2,9.551339E2,3.1776874E2,3.2280414E2,3.9350644E2,8.700854E1,4.1939285E1],"tree_param":{"num_deleted":"0","num_feature":"61","num_nodes":"127","size_leaf_vector":"1"}},{"base_weights":[1.8975344E-3,1.0394107E-1,-1.665404E-1,6.909606E-2,5.1854664E-1,5.345271E-2,-2.7768925E-1,-1.431053E-1,1.6341875E-1,-2.779997E-1,5.704573E-1,2.936551E-1,-1.4485143E-1,1.1375075E-1,-3.4763032E-1,1.15390584E-1,-2.4265182E-1,3.9136082E-1,1.05029374E-1,-5.0580716E-1,3.1690288E-1,9.098472E-1,4.778452E-1,7.7918625E-1,1.2017951E-1,-2.2858752E-1,4.5924744E-1,6.1972404E-1,-3.9201025E-2,-4.8366842E-1,-1.7039159E-1,2.074615E-1,-4.2422616E-1,-5.2505106E-1,-1.2016101E-1,4.7290775E-1,-1.934876E-1,2.8890666E-1,4.1226395E-3,-8.168732E-1,2.9236183E-1,6.450212E-1,1.2163523E0,6.703509E-2,5.9634393E-1,-3.3600897E-1,8.993043E-1,3.6159384E-1,-1.018833E-1,2.1016654E-2,-3.7279797E-1,-2.0838301E-1,6.533393E-1,1.1528459E0,8.429583E-2,-2.007297E-1,4.7784877E-1,-8.8617295E-2,-5.685885E-1,-2.2446339E-1,6.367612E-1,7.75374E-2,-1.9354746E-1,3.648737E-2,-2.3882154E-1,-1.1844084E-1,-2.7452087E-1,-5.8476076E-2,1.310478E-1,9.786578E-2,2.3271322E-1,9.213838E-2,-1.9284934E-1,4.5210138E-2,1.564215E-1,2.1672025E-2,-9.241175E-2,1.3494596E-1,-3.283535E-1,-4.859888E-2,2.96712E-1,4.104797E-1,1.1598648E-1,1.0653888E-1,-1.999025E-1,2.3909746E-1,7.173315E-2,1.8302836E-1,-3.8345134E-1,4.7117105E-1,2.0999563E-1,1.7771724E-1,8.231691E-3,2.66487E-2,-1.5153691E-1,7.909101E-2,-1.0664742E-1,4.2833425E-2,-1.4712866E-1,-3.6337882E-1,1.1205302E-1,2.752369E-1,5.0147235E-2,7.271393E-2,4.5719695E-1,3.2599044E-1,-5.5276833E-2,1.2118133E-1,-9.275632E-2,1.2158807E-3,2.6586673E-1,8.7839395E-2,-9.10241E-2,1.2874914E-2,-1.884041E-1,-1.2585796E-1,-1.9529816E-2,4.166814E-1,5.266228E-2],"categories":[],"categories_nodes":[],"categories_segments":[],"categories_sizes":[],"default_left":[0,0,0,0,0,0,0,0,0,0,0,0,0,0,0,0,0,0,0,0,0,0,0,0,0,0,0,0,0,0,0,0,0,0,0,0,0,0,0,0,0,0,0,0,0,0,0,0,0,0,0,0,0,0,0,0,0,0,0,0,0,0,0,0,0,0,0,0,0,0,0,0,0,0,0,0,0,0,0,0,0,0,0,0,0,0,0,0,0,0,0,0,0,0,0,0,0,0,0,0,0,0,0,0,0,0,0,0,0,0,0,0,0,0,0,0,0,0,0],"id":7,"left_children":[1,3,5,7,9,11,13,15,17,19,21,23,25,27,29,31,33,35,37,39,-1,41,43,45,47,49,51,53,55,57,59,61,63,65,67,69,71,73,75,77,-1,79,81,83,85,87,89,91,93,95,97,99,101,103,105,107,109,111,113,115,117,-1,-1,-1,-1,-1,-1,-1,-1,-1,-1,-1,-1,-1,-1,-1,-1,-1,-1,-1,-1,-1,-1,-1,-1,-1,-1,-1,-1,-1,-1,-1,-1,-1,-1,-1,-1,-1,-1,-1,-1,-1,-1,-1,-1,-1,-1,-1,-1,-1,-1,-1,-1,-1,-1,-1,-1,-1,-1],"loss_changes":[1.2032729E2,6.294606E1,6.459537E1,8.053937E1,1.4127678E1,4.2309196E1,4.808139E1,3.1894634E1,3.7029755E1,7.021618E0,9.544472E0,3.37329E1,2.4726152E1,2.0668835E1,3.5819595E1,1.7227978E1,3.08754E1,2.7162811E1,4.116545E1,9.501869E0,0E0,4.6503754E0,1.2204788E1,1.44392395E1,1.5962599E1,1.54191E1,7.857419E0,1.7595201E1,1.7282366E1,2.8192764E1,2.8430405E1,1.30098295E1,1.0369556E1,1.3368996E1,2.6114916E1,2.1887032E1,1.5981953E1,2.5181892E1,3.050508E1,6.1779346E0,0E0,1.0723962E1,3.2407227E0,1.2372356E1,1.3793434E1,1.0576092E1,1.1684303E1,1.097777E1,1.200462E1,1.4501925E1,1.653075E1,8.726954E0,5.805704E0,1.0098686E1,8.814654E0,1.0453956E1,9.531337E0,1.2388979E1,2.5200333E1,1.8878738E1,1.396386E1,0E0,0E0,0E0,0E0,0E0,0E0,0E0,0E0,0E0,0E0,0E0,0E0,0E0,0E0,0E0,0E0,0E0,0E0,0E0,0E0,0E0,0E0,0E0,0E0,0E0,0E0,0E0,0E0,0E0,0E0,0E0,0E0,0E0,0E0,0E0,0E0,0E0,0E0,0E0,0E0,0E0,0E0,0E0,0E0,0E0,0E0,0E0,0E0,0E0,0E0,0E0,0E0,0E0,0E0,0E0,0E0,0E0,0E0],"parents":[2147483647,0,0,1,1,2,2,3,3,4,4,5,5,6,6,7,7,8,8,9,9,10,10,11,11,12,12,13,13,14,14,15,15,16,16,17,17,18,18,19,19,21,21,22,22,23,23,24,24,25,25,26,26,27,27,28,28,29,29,30,30,31,31,32,32,33,33,34,34,35,35,36,36,37,37,38,38,39,39,41,41,42,42,43,43,44,44,45,45,46,46,47,47,48,48,49,49,50,50,51,51,52,52,53,53,54,54,55,55,56,56,57,57,58,58,59,59,60,60],"right_children":[2,4,6,8,10,12,14,16,18,20,22,24,26,28,30,32,34,36,38,40,-1,42,44,46,48,50,52,54,56,58,60,62,64,66,68,70,72,74,76,78,-1,80,82,84,86,88,90,92,94,96,98,100,102,104,106,108,110,112,114,116,118,-1,-1,-1,-1,-1,-1,-1,-1,-1,-1,-1,-1,-1,-1,-1,-1,-1,-1,-1,-1,-1,-1,-1,-1,-1,-1,-1,-1,-1,-1,-1,-1,-1,-1,-1,-1,-1,-1,-1,-1,-1,-1,-1,-1,-1,-1,-1,-1,-1,-1,-1,-1,-1,-1,-1,-1,-1,-1],"split_conditions":[-7.30336E-3,4.3775037E-1,1.2174086E-1,-2.0534576E-1,-9.475136E-2,6.9565216E1,-1.2369396E-1,-2.8127047E-1,3.8248253E-1,4.38432E-3,9.227199E-2,2E0,4.2850333E-1,-9.976064E-2,2.554111E-2,1.1764081E-1,-1.7117445E-1,-2.5128E-3,-3.393633E-1,-3.4349602E-1,3.1690288E-1,1.7532618E-1,9.137296E-2,-1.0144137E-1,3.977218E-2,1.0555004E-1,-4.608985E-2,-2.49457E-1,-1.4103912E-1,-4.44336E-3,1.6201408E-1,7.042846E-1,4.4014597E0,-2.792007E-1,2.5302872E-1,2.2791371E0,5.739394E-2,7.588677E-2,1.4147708E-1,-6.744863E-2,2.9236183E-1,4.586207E0,2.613569E-2,3.5E1,1.9655663E-1,6.078145E-2,4.735756E-2,-2.6500094E-1,1.0321087E-1,-8.242711E-2,-7.430124E-2,-1.7369436E-1,-1.1430269E-1,-8.51426E-3,8.53684E-3,-3.7826604E-1,8.102896E-3,-1.2103901E-1,-4.0511253E-1,-2.115591E-1,-6.052773E-2,7.75374E-2,-1.9354746E-1,3.648737E-2,-2.3882154E-1,-1.1844084E-1,-2.7452087E-1,-5.8476076E-2,1.310478E-1,9.786578E-2,2.3271322E-1,9.213838E-2,-1.9284934E-1,4.5210138E-2,1.564215E-1,2.1672025E-2,-9.241175E-2,1.3494596E-1,-3.283535E-1,-4.859888E-2,2.96712E-1,4.104797E-1,1.1598648E-1,1.0653888E-1,-1.999025E-1,2.3909746E-1,7.173315E-2,1.8302836E-1,-3.8345134E-1,4.7117105E-1,2.0999563E-1,1.7771724E-1,8.231691E-3,2.66487E-2,-1.5153691E-1,7.909101E-2,-1.0664742E-1,4.2833425E-2,-1.4712866E-1,-3.6337882E-1,1.1205302E-1,2.752369E-1,5.0147235E-2,7.271393E-2,4.5719695E-1,3.2599044E-1,-5.5276833E-2,1.2118133E-1,-9.275632E-2,1.2158807E-3,2.6586673E-1,8.7839395E-2,-9.10241E-2,1.2874914E-2,-1.884041E-1,-1.2585796E-1,-1.9529816E-2,4.166814E-1,5.266228E-2],"split_indices":[59,32,33,14,56,9,53,29,25,51,34,5,15,31,55,47,21,13,30,37,0,42,12,55,28,16,56,29,44,46,48,25,8,30,11,41,26,56,38,26,0,8,49,4,16,33,12,30,54,13,26,49,58,48,54,29,57,49,17,14,53,0,0,0,0,0,0,0,0,0,0,0,0,0,0,0,0,0,0,0,0,0,0,0,0,0,0,0,0,0,0,0,0,0,0,0,0,0,0,0,0,0,0,0,0,0,0,0,0,0,0,0,0,0,0,0,0,0,0],"split_type":[0,0,0,0,0,0,0,0,0,0,0,0,0,0,0,0,0,0,0,0,0,0,0,0,0,0,0,0,0,0,0,0,0,0,0,0,0,0,0,0,0,0,0,0,0,0,0,0,0,0,0,0,0,0,0,0,0,0,0,0,0,0,0,0,0,0,0,0,0,0,0,0,0,0,0,0,0,0,0,0,0,0,0,0,0,0,0,0,0,0,0,0,0,0,0,0,0,0,0,0,0,0,0,0,0,0,0,0,0,0,0,0,0,0,0,0,0,0,0],"sum_hessian":[6.9986494E3,4.358533E3,2.640116E3,4.0217012E3,3.3683218E2,8.863376E2,1.7537783E3,1.2373871E3,2.7843142E3,2.0341726E1,3.1649045E2,4.0060767E2,4.8572995E2,2.6576147E2,1.4880168E3,3.4398648E2,8.9340063E2,5.66621E2,2.217693E3,1.7905685E1,2.4360414E0,6.595711E1,2.5053334E2,1.04536E2,2.9607166E2,4.271438E2,5.858617E1,6.098101E1,2.0478046E2,8.408786E2,6.4713824E2,2.9437494E2,4.9611538E1,2.6928497E2,6.2411566E2,4.9745142E2,6.916954E1,7.8512897E2,1.4325642E3,1.5166854E1,2.7388315E0,3.7049828E1,2.8907278E1,5.643855E1,1.9409479E2,9.989988E0,9.454602E1,1.4155385E2,1.545178E2,1.5672804E2,2.7041574E2,1.3179196E1,4.540697E1,2.9978508E1,3.1002502E1,1.5650072E2,4.8279747E1,1.4913606E2,6.9174255E2,6.071844E2,3.995385E1,2.7841913E2,1.5955808E1,2.037499E1,2.923655E1,2.0337823E2,6.590674E1,5.508325E2,7.3283134E1,3.365109E2,1.609405E2,3.2867836E1,3.6301704E1,4.9345062E2,2.9167834E2,1.1765873E3,2.5597687E2,2.61519E0,1.2551663E1,1.1231496E1,2.581833E1,2.388516E1,5.022118E0,4.0890987E1,1.5547562E1,1.23498375E2,7.059642E1,5.1604266E0,4.8295617E0,2.0071054E1,7.447496E1,8.326847E1,5.8285374E1,1.05432976E2,4.908483E1,9.549274E1,6.1235302E1,5.019542E1,2.2022032E2,4.4419703E0,8.7372265E0,2.8848202E1,1.6558771E1,9.160247E0,2.081826E1,5.9074306E0,2.5095072E1,2.3387585E1,1.3311313E2,2.2817162E1,2.5462585E1,5.359822E1,9.553784E1,6.1293095E1,6.3044946E2,2.722793E2,3.3490506E2,1.4422161E1,2.5531689E1],"tree_param":{"num_deleted":"0","num_feature":"61","num_nodes":"119","size_leaf_vector":"1"}},{"base_weights":[1.6326617E-3,1.4998688E-1,-8.9827344E-2,4.1953453E-1,9.1015585E-2,1.9197088E-2,-2.5405335E-1,-4.8546252E-1,4.697937E-1,2.3110576E-1,-3.7276454E-2,1.2513717E-1,-1.934009E-1,-5.1193894E-3,-3.3727977E-1,3.66652E-1,-9.435239E-1,6.4408734E-2,5.376756E-1,2.812544E-1,-3.6277127E-1,-6.999014E-2,5.2856827E-1,-8.4910765E-2,2.615874E-1,-3.1910878E-1,2.0045575E-1,4.9664244E-1,-8.467187E-2,-2.6367998E-1,-6.829929E-1,3.1474704E-1,-1.985822E-1,-1.2620277E0,2.9146987E-1,-1.9967952E-1,6.215524E-1,9.3245167E-1,4.693272E-1,4.6796393E-1,1.2980416E-1,4.5035787E-2,-6.6851765E-1,1.6082102E-1,-1.6484302E-1,-4.5697933E-1,6.660224E-1,-1.7360695E-1,2.8809673E-1,1.2601909E-1,4.8410922E-1,-2.5080642E-2,-4.4311017E-1,-4.279584E-1,2.943639E-1,-9.2771053E-1,6.0409397E-1,-1.6058305E-1,4.5857784E-1,-1.6309637E-1,-4.8453885E-1,-7.9712653E-1,1.3555592E-1,-2.1331495E-1,3.2743686E-1,1.6723889E-1,-4.4602358E-1,-1.7487946E-1,2.989381E-1,-1.2706938E-1,1.5026176E-1,2.411787E-1,-9.0473436E-2,3.2308862E-1,-7.068176E-3,9.999202E-2,2.1040888E-1,6.05315E-2,1.7101009E-1,1.0766425E-1,-3.8635032E-3,1.814583E-1,-1.121263E-1,2.5557168E-2,-2.9066324E-1,9.672029E-2,-3.977183E-2,-3.1283025E-2,-1.766961E-1,-4.498709E-1,1.2842502E-1,-1.8910623E-1,2.1872647E-1,1.18724816E-1,-7.2076425E-2,-6.041985E-2,1.3314378E-1,1.8203795E-1,1.6804798E-2,6.641442E-2,1.9081652E-1,-7.763724E-2,1.294654E-1,-6.760515E-2,-1.8957877E-1,-1.933598E-1,1.9292265E-1,1.5577912E-1,-2.545708E-3,1.22531585E-1,-4.367501E-1,8.654677E-2,3.2882303E-1,2.9184857E-2,-9.074306E-2,-1.8782731E-2,2.7643597E-1,-8.129676E-2,1.4103633E-2,-1.5916666E-1,2.0017752E-1,2.5964013E-1,-2.488495E-1,-3.6935437E-2,4.308218E-1],"categories":[],"categories_nodes":[],"categories_segments":[],"categories_sizes":[],"default_left":[0,0,0,0,0,0,0,0,0,0,0,0,0,0,0,0,0,0,0,0,0,0,0,0,0,0,0,0,0,0,0,0,0,0,0,0,0,0,0,0,0,0,0,0,0,0,0,0,0,0,0,0,0,0,0,0,0,0,0,0,0,0,0,0,0,0,0,0,0,0,0,0,0,0,0,0,0,0,0,0,0,0,0,0,0,0,0,0,0,0,0,0,0,0,0,0,0,0,0,0,0,0,0,0,0,0,0,0,0,0,0,0,0,0,0,0,0,0,0,0,0,0,0,0,0],"id":8,"left_children":[1,3,5,7,9,11,13,15,17,19,21,23,25,27,29,31,33,35,37,39,41,43,45,47,49,51,53,55,57,59,61,-1,63,65,67,69,71,73,75,77,79,81,83,85,87,89,91,93,95,97,99,101,103,105,107,109,111,113,115,117,119,121,123,-1,-1,-1,-1,-1,-1,-1,-1,-1,-1,-1,-1,-1,-1,-1,-1,-1,-1,-1,-1,-1,-1,-1,-1,-1,-1,-1,-1,-1,-1,-1,-1,-1,-1,-1,-1,-1,-1,-1,-1,-1,-1,-1,-1,-1,-1,-1,-1,-1,-1,-1,-1,-1,-1,-1,-1,-1,-1,-1,-1,-1,-1],"loss_changes":[9.312799E1,4.1570206E1,7.6027176E1,2.1587585E1,3.8631565E1,5.751971E1,3.509783E1,1.0181655E1,1.2222061E1,3.0700405E1,2.0817305E1,4.8871674E1,4.2118706E1,1.7026773E1,3.212564E1,3.8848557E0,6.9245377E0,9.691016E0,9.852913E0,2.674517E1,1.0059603E1,2.3279806E1,8.631779E0,2.2280613E1,3.1114838E1,2.3479195E1,1.2290145E1,9.494817E0,1.5254904E1,2.3211647E1,2.0869438E1,0E0,4.7782636E0,6.323612E0,3.18836E0,7.2495193E0,3.8036108E0,7.6612854E0,1.0090324E1,1.1410004E1,1.7157505E1,8.526379E0,1.0504084E1,1.4732216E1,1.928913E1,8.132094E0,4.90345E0,2.0718073E1,9.957078E0,2.1625055E1,1.5463966E1,2.0620409E1,1.8487946E1,6.7250786E0,1.2258942E1,3.7624812E0,8.206179E0,1.1874855E1,1.1008622E1,1.6376972E1,1.771537E1,1.1222656E1,9.612761E0,0E0,0E0,0E0,0E0,0E0,0E0,0E0,0E0,0E0,0E0,0E0,0E0,0E0,0E0,0E0,0E0,0E0,0E0,0E0,0E0,0E0,0E0,0E0,0E0,0E0,0E0,0E0,0E0,0E0,0E0,0E0,0E0,0E0,0E0,0E0,0E0,0E0,0E0,0E0,0E0,0E0,0E0,0E0,0E0,0E0,0E0,0E0,0E0,0E0,0E0,0E0,0E0,0E0,0E0,0E0,0E0,0E0,0E0,0E0,0E0,0E0,0E0],"parents":[2147483647,0,0,1,1,2,2,3,3,4,4,5,5,6,6,7,7,8,8,9,9,10,10,11,11,12,12,13,13,14,14,15,15,16,16,17,17,18,18,19,19,20,20,21,21,22,22,23,23,24,24,25,25,26,26,27,27,28,28,29,29,30,30,32,32,33,33,34,34,35,35,36,36,37,37,38,38,39,39,40,40,41,41,42,42,43,43,44,44,45,45,46,46,47,47,48,48,49,49,50,50,51,51,52,52,53,53,54,54,55,55,56,56,57,57,58,58,59,59,60,60,61,61,62,62],"right_children":[2,4,6,8,10,12,14,16,18,20,22,24,26,28,30,32,34,36,38,40,42,44,46,48,50,52,54,56,58,60,62,-1,64,66,68,70,72,74,76,78,80,82,84,86,88,90,92,94,96,98,100,102,104,106,108,110,112,114,116,118,120,122,124,-1,-1,-1,-1,-1,-1,-1,-1,-1,-1,-1,-1,-1,-1,-1,-1,-1,-1,-1,-1,-1,-1,-1,-1,-1,-1,-1,-1,-1,-1,-1,-1,-1,-1,-1,-1,-1,-1,-1,-1,-1,-1,-1,-1,-1,-1,-1,-1,-1,-1,-1,-1,-1,-1,-1,-1,-1,-1,-1,-1,-1,-1],"split_conditions":[7.895365E-2,-4.211434E-2,-8.138169E-2,-3.1128928E-1,-2.659272E-1,1.8176445E-1,-4.00426E-1,6.444515E-2,-4.657245E-2,6.444494E-2,2.919444E-1,3.1158122E-1,-1.2543666E-1,9.102888E-2,-2.690844E-1,6.644129E-2,-4.694037E-2,9.899802E-2,-2.1122853E-1,-1.5049943E-1,1.3418159E-1,1.2274173E-1,4.21E2,-4.472423E-2,1.1768254E-1,-2.2296204E-1,-2.5744617E-1,-3.048593E-2,4.4012338E-1,1.880084E-2,-5.87227E-2,3.1474704E-1,5.8573406E-2,1.1E1,-1.6253015E-1,1.9742602E-2,1.7958986E-2,5.59578E-1,3.6251563E-1,-5.8347974E-2,-3.44638E-1,-2.919325E-1,2.2179976E-2,-2.6455596E-1,1.15640536E-1,9.615547E-2,-3.4668423E-2,5.3848922E-2,2.0888749E-1,-2.9106697E-1,-1.248334E0,3.7220937E-1,-2.2537003E-1,4.5185181E-1,-2.701498E-1,-2.8239828E-1,1.715166E-2,1.1202424E-1,-2.0313427E-1,-1.2838627E-1,1.0319753E-1,-1.0189878E-1,9.493365E-2,-2.1331495E-1,3.2743686E-1,1.6723889E-1,-4.4602358E-1,-1.7487946E-1,2.989381E-1,-1.2706938E-1,1.5026176E-1,2.411787E-1,-9.0473436E-2,3.2308862E-1,-7.068176E-3,9.999202E-2,2.1040888E-1,6.05315E-2,1.7101009E-1,1.0766425E-1,-3.8635032E-3,1.814583E-1,-1.121263E-1,2.5557168E-2,-2.9066324E-1,9.672029E-2,-3.977183E-2,-3.1283025E-2,-1.766961E-1,-4.498709E-1,1.2842502E-1,-1.8910623E-1,2.1872647E-1,1.18724816E-1,-7.2076425E-2,-6.041985E-2,1.3314378E-1,1.8203795E-1,1.6804798E-2,6.641442E-2,1.9081652E-1,-7.763724E-2,1.294654E-1,-6.760515E-2,-1.8957877E-1,-1.933598E-1,1.9292265E-1,1.5577912E-1,-2.545708E-3,1.22531585E-1,-4.367501E-1,8.654677E-2,3.2882303E-1,2.9184857E-2,-9.074306E-2,-1.8782731E-2,2.7643597E-1,-8.129676E-2,1.4103633E-2,-1.5916666E-1,2.0017752E-1,2.5964013E-1,-2.488495E-1,-3.6935437E-2,4.308218E-1],"split_indices":[38,38,13,14,30,16,17,54,42,13,12,15,19,52,30,27,57,48,13,58,27,22,3,51,48,13,14,48,15,59,21,0,47,6,43,53,49,25,15,55,30,23,16,44,54,28,20,33,15,58,36,15,29,35,30,58,45,27,14,21,45,28,57,0,0,0,0,0,0,0,0,0,0,0,0,0,0,0,0,0,0,0,0,0,0,0,0,0,0,0,0,0,0,0,0,0,0,0,0,0,0,0,0,0,0,0,0,0,0,0,0,0,0,0,0,0,0,0,0,0,0,0,0,0,0],"split_type":[0,0,0,0,0,0,0,0,0,0,0,0,0,0,0,0,0,0,0,0,0,0,0,0,0,0,0,0,0,0,0,0,0,0,0,0,0,0,0,0,0,0,0,0,0,0,0,0,0,0,0,0,0,0,0,0,0,0,0,0,0,0,0,0,0,0,0,0,0,0,0,0,0,0,0,0,0,0,0,0,0,0,0,0,0,0,0,0,0,0,0,0,0,0,0,0,0,0,0,0,0,0,0,0,0,0,0,0,0,0,0,0,0,0,0,0,0,0,0,0,0,0,0,0,0],"sum_hessian":[6.861562E3,2.616609E3,4.244953E3,4.6860077E2,2.148008E3,2.5517864E3,1.6931669E3,2.4199045E1,4.444017E2,1.0264075E3,1.1216005E3,1.7033824E3,8.4840405E2,4.245074E2,1.2686594E3,8.530196E0,1.566885E1,6.4021225E1,3.803805E2,9.469692E2,7.943832E1,1.0611288E3,6.0471687E1,6.7093713E2,1.0324453E3,6.432778E2,2.0512624E2,5.7376064E1,3.6713132E2,1.0474316E3,2.2122778E2,3.476397E0,5.053799E0,1.2438962E1,3.229888E0,4.386883E1,2.0152395E1,5.4271152E1,3.2610934E2,4.2317926E2,5.2379E2,3.4403435E1,4.503488E1,3.0886172E2,7.522671E2,7.1171393E0,5.335455E1,5.424778E2,1.2845938E2,6.425481E2,3.898972E2,1.9117412E2,4.5210367E2,2.6205717E1,1.7892052E2,3.4892745E0,5.388679E1,3.2273785E2,4.4393475E1,7.208709E2,3.265608E2,1.9417882E2,2.7048977E1,3.9381747E0,1.1156244E0,1.2046262E0,1.1234336E1,1.5190017E0,1.7108861E0,3.3544075E1,1.0324757E1,1.693566E1,3.2167346E0,4.703487E1,7.236282E0,2.0712694E2,1.1898239E2,1.1811597E2,3.050633E2,2.0045091E2,3.2333905E2,1.4532521E1,1.9870914E1,1.3036953E1,3.199793E1,1.9910843E2,1.0975329E2,6.593588E2,9.2908295E1,2.9489784E0,4.1681604E0,2.0578718E0,5.1296677E1,5.632958E1,4.861482E2,3.0931656E1,9.752772E1,8.069247E1,5.618556E2,1.4376746E2,2.4612971E2,1.26740135E2,6.4433975E1,2.1097993E2,2.4112373E2,2.2129179E1,4.076538E0,1.02263664E2,7.665685E1,1.0526633E0,2.4366112E0,3.379429E1,2.0092503E1,1.1466667E2,2.0807118E2,2.1288197E1,2.3105276E1,4.7609937E2,2.4477156E2,3.1453387E2,1.2026923E1,3.2170699E0,1.9096175E2,2.3316612E1,3.7323654E0],"tree_param":{"num_deleted":"0","num_feature":"61","num_nodes":"125","size_leaf_vector":"1"}},{"base_weights":[1.5292268E-3,1.180934E-1,-8.296738E-2,-4.843005E-2,1.850056E-1,9.6609734E-2,-1.8185435E-1,2.8596917E-1,-1.2141415E-1,8.863532E-2,3.5983717E-1,2.855734E-1,-6.9134064E-2,-2.4316905E-1,1.0953525E-1,4.976514E-1,-9.338477E-2,-3.3698365E-1,1.9328635E-2,3.5262167E-2,5.727963E-1,4.3789393E-1,-5.5788714E-2,2.9363899E-2,3.9021373E-1,-2.8396463E-1,6.642625E-2,-2.8604472E-1,2.1228889E-1,8.7245977E-1,6.2466174E-2,-1.0866552E-1,6.493857E-1,3.6432275E-1,-4.459163E-1,4.4532868E-1,-4.0337396E-1,8.169167E-1,-2.3509754E-2,1.909184E-1,-1.3446252E-1,2.1574032E-1,7.5607944E-1,5.5671644E-1,1.8218024E-1,-8.160936E-1,1.0818355E-1,-1.9849928E-1,3.4299284E-1,1.4075747E-1,5.3601605E-1,-3.7472072E-1,2.844474E-1,2.856218E-1,-8.8558435E-2,-4.2436552E-1,-1.3518496E-1,3.9303485E-1,-2.9783195E-1,1.0682186E0,-3.808496E-1,-8.7829314E-2,2.8344077E-1,2.2158001E-1,-1.9784583E-1,-1.1356588E-1,2.2313702E-1,2.4971163E-1,-1.0323498E-1,-1.868222E-1,2.3898695E-1,2.49923E-1,-1.2482809E-1,-5.4419685E-2,-1.9282018E-1,3.1947494E-1,-2.2083792E-1,8.517269E-2,-4.1026935E-2,3.1231783E-2,1.8800507E-1,-9.596028E-2,2.4876978E-2,-2.5829658E-1,1.1323527E-1,-1.3267317E-1,2.5725144E-1,2.1692769E-1,9.9645525E-2,-1.1622471E-1,8.6574495E-2,1.8682215E-1,-3.3993474E-1,1.5388471E-1,-6.547682E-2,-1.7198983E-1,5.691401E-2,3.053303E-1,5.1282577E-2,9.157857E-2,-1.1739553E-1,1.0802323E-1,2.413165E-1,1.6265681E-1,-1.3114132E-1,1.9158012E-1,-9.857362E-2,-2.176941E-4,1.5463173E-1,-7.847278E-2,1.0998232E-1,-1.8955916E-1,-9.282522E-2,-5.562761E-2,1.0178659E-1,-1.7301029E-2,1.9916658E-1,-2.06388E-1,7.099576E-2,3.451894E-1,-6.1984565E-2,2.4201801E-1,-4.408975E-1,9.6655935E-2,-8.5182466E-2,2.4634367E-2,1.799872E-1],"categories":[],"categories_nodes":[],"categories_segments":[],"categories_sizes":[],"default_left":[0,0,0,0,0,0,0,0,0,0,0,0,0,0,0,0,0,0,0,0,0,0,0,0,0,0,0,0,0,0,0,0,0,0,0,0,0,0,0,0,0,0,0,0,0,0,0,0,0,0,0,0,0,0,0,0,0,0,0,0,0,0,0,0,0,0,0,0,0,0,0,0,0,0,0,0,0,0,0,0,0,0,0,0,0,0,0,0,0,0,0,0,0,0,0,0,0,0,0,0,0,0,0,0,0,0,0,0,0,0,0,0,0,0,0,0,0,0,0,0,0,0,0,0,0,0,0],"id":9,"left_children":[1,3,5,7,9,11,13,15,17,19,21,23,25,27,29,31,33,35,37,39,41,43,45,47,49,51,53,55,57,59,61,63,65,67,69,71,73,75,77,79,81,83,85,87,89,91,93,95,97,99,101,103,105,107,109,111,113,115,117,119,121,123,125,-1,-1,-1,-1,-1,-1,-1,-1,-1,-1,-1,-1,-1,-1,-1,-1,-1,-1,-1,-1,-1,-1,-1,-1,-1,-1,-1,-1,-1,-1,-1,-1,-1,-1,-1,-1,-1,-1,-1,-1,-1,-1,-1,-1,-1,-1,-1,-1,-1,-1,-1,-1,-1,-1,-1,-1,-1,-1,-1,-1,-1,-1,-1,-1],"loss_changes":[6.6305725E1,3.153275E1,6.932433E1,1.9846048E1,3.3975525E1,4.344832E1,4.500109E1,1.1748557E1,2.0243824E1,3.3638165E1,2.3282639E1,1.7364635E1,2.1555094E1,4.067833E1,1.5684679E1,8.690048E0,8.719839E0,1.3866659E1,1.3839723E1,3.1047688E1,8.296207E0,1.8240791E1,1.4330229E1,1.3576743E1,1.6658882E1,1.4875475E1,1.5455811E1,3.961989E1,1.6670124E1,6.636738E0,1.3771157E1,9.638995E0,7.567545E0,8.120199E0,7.1772494E0,7.3909473E0,1.2817657E1,8.735787E0,1.3436999E1,2.3121443E1,2.269065E1,8.20307E0,1.071236E1,1.514061E1,1.180884E1,1.0003445E1,1.2645224E1,1.6130909E1,9.103215E0,1.5093536E1,1.3404297E1,1.4390503E1,8.890969E0,1.239661E1,2.1110193E1,2.3452637E1,2.177814E1,1.6273304E1,1.0075281E1,2.5727272E0,6.5743637E0,1.9961481E1,1.0642812E1,0E0,0E0,0E0,0E0,0E0,0E0,0E0,0E0,0E0,0E0,0E0,0E0,0E0,0E0,0E0,0E0,0E0,0E0,0E0,0E0,0E0,0E0,0E0,0E0,0E0,0E0,0E0,0E0,0E0,0E0,0E0,0E0,0E0,0E0,0E0,0E0,0E0,0E0,0E0,0E0,0E0,0E0,0E0,0E0,0E0,0E0,0E0,0E0,0E0,0E0,0E0,0E0,0E0,0E0,0E0,0E0,0E0,0E0,0E0,0E0,0E0,0E0,0E0,0E0],"parents":[2147483647,0,0,1,1,2,2,3,3,4,4,5,5,6,6,7,7,8,8,9,9,10,10,11,11,12,12,13,13,14,14,15,15,16,16,17,17,18,18,19,19,20,20,21,21,22,22,23,23,24,24,25,25,26,26,27,27,28,28,29,29,30,30,31,31,32,32,33,33,34,34,35,35,36,36,37,37,38,38,39,39,40,40,41,41,42,42,43,43,44,44,45,45,46,46,47,47,48,48,49,49,50,50,51,51,52,52,53,53,54,54,55,55,56,56,57,57,58,58,59,59,60,60,61,61,62,62],"right_children":[2,4,6,8,10,12,14,16,18,20,22,24,26,28,30,32,34,36,38,40,42,44,46,48,50,52,54,56,58,60,62,64,66,68,70,72,74,76,78,80,82,84,86,88,90,92,94,96,98,100,102,104,106,108,110,112,114,116,118,120,122,124,126,-1,-1,-1,-1,-1,-1,-1,-1,-1,-1,-1,-1,-1,-1,-1,-1,-1,-1,-1,-1,-1,-1,-1,-1,-1,-1,-1,-1,-1,-1,-1,-1,-1,-1,-1,-1,-1,-1,-1,-1,-1,-1,-1,-1,-1,-1,-1,-1,-1,-1,-1,-1,-1,-1,-1,-1,-1,-1,-1,-1,-1,-1,-1,-1],"split_conditions":[1.07931625E-2,2.5647762E-1,-3.0900213E-1,-3.4834984E-1,-1.5163463E-1,-8.613364E-2,-7.007489E-2,-1.599469E-2,-2.0375659E-1,1.8950991E-1,3.83724E-2,-2.1754594E-1,-1.621355E-1,4.8072907E-1,-4.6190432E-1,2.2118025E-1,6.786835E-2,-2.2296204E-1,1.0909091E1,-2.0176852E-1,3.4710625E-1,1.6570343E-1,-4.20275E-2,3.5290033E-1,-1.4683346E-1,3.7514243E-1,6.525606E-2,-1.8482254E-1,-2.9814744E-1,3.1686753E-1,3.3637878E-1,1.7037013E-1,-4.9074918E-1,1.4145082E-1,5.894614E-2,-2.3069516E-1,-3.2073548E-1,2.5232252E-1,6.3690475E1,4E1,3.8375592E-1,-3.2536265E-1,-1.330667E-1,-2.527527E-1,1.4107646E-1,-1.2336857E0,4.3704948E-1,-1.1785456E-1,1.5E1,-1.5257359E-1,3.0833185E-1,-4.3823096E-1,2.4022737E-1,8.882274E-2,6.959638E-2,3.2194817E-1,9.478885E-2,-3.36559E-2,-2.3072475E-1,2.794316E-1,-2.4203229E-1,-1.6652668E-2,1.3166106E-1,2.2158001E-1,-1.9784583E-1,-1.1356588E-1,2.2313702E-1,2.4971163E-1,-1.0323498E-1,-1.868222E-1,2.3898695E-1,2.49923E-1,-1.2482809E-1,-5.4419685E-2,-1.9282018E-1,3.1947494E-1,-2.2083792E-1,8.517269E-2,-4.1026935E-2,3.1231783E-2,1.8800507E-1,-9.596028E-2,2.4876978E-2,-2.5829658E-1,1.1323527E-1,-1.3267317E-1,2.5725144E-1,2.1692769E-1,9.9645525E-2,-1.1622471E-1,8.6574495E-2,1.8682215E-1,-3.3993474E-1,1.5388471E-1,-6.547682E-2,-1.7198983E-1,5.691401E-2,3.053303E-1,5.1282577E-2,9.157857E-2,-1.1739553E-1,1.0802323E-1,2.413165E-1,1.6265681E-1,-1.3114132E-1,1.9158012E-1,-9.857362E-2,-2.176941E-4,1.5463173E-1,-7.847278E-2,1.0998232E-1,-1.8955916E-1,-9.282522E-2,-5.562761E-2,1.0178659E-1,-1.7301029E-2,1.9916658E-1,-2.06388E-1,7.099576E-2,3.451894E-1,-6.1984565E-2,2.4201801E-1,-4.408975E-1,9.6655935E-2,-8.5182466E-2,2.4634367E-2,1.799872E-1],"split_indices":[47,32,29,29,19,53,21,53,40,48,59,19,51,35,17,15,46,13,10,29,15,33,55,35,14,32,47,14,30,60,35,15,50,33,43,30,30,22,9,6,15,40,55,30,20,36,25,51,4,58,35,23,52,34,45,15,55,55,44,11,40,54,12,0,0,0,0,0,0,0,0,0,0,0,0,0,0,0,0,0,0,0,0,0,0,0,0,0,0,0,0,0,0,0,0,0,0,0,0,0,0,0,0,0,0,0,0,0,0,0,0,0,0,0,0,0,0,0,0,0,0,0,0,0,0,0,0],"split_type":[0,0,0,0,0,0,0,0,0,0,0,0,0,0,0,0,0,0,0,0,0,0,0,0,0,0,0,0,0,0,0,0,0,0,0,0,0,0,0,0,0,0,0,0,0,0,0,0,0,0,0,0,0,0,0,0,0,0,0,0,0,0,0,0,0,0,0,0,0,0,0,0,0,0,0,0,0,0,0,0,0,0,0,0,0,0,0,0,0,0,0,0,0,0,0,0,0,0,0,0,0,0,0,0,0,0,0,0,0,0,0,0,0,0,0,0,0,0,0,0,0,0,0,0,0,0,0],"sum_hessian":[6.730045E3,2.8281614E3,3.9018833E3,8.1074585E2,2.0174156E3,1.3856283E3,2.5162551E3,1.4472504E2,6.660208E2,1.301508E3,7.1590753E2,6.4712335E2,7.3850494E2,2.078962E3,4.372932E2,9.269097E1,5.203406E1,2.625264E2,4.0349442E2,1.1732443E3,1.2826378E2,6.0266943E2,1.1323811E2,1.8802618E2,4.5909714E2,2.8529156E2,4.532134E2,1.900432E3,1.785299E2,2.4392286E1,4.1290094E2,1.8610178E1,7.4080795E1,2.2625244E1,2.9408817E1,2.0089811E1,2.4243658E2,1.9645947E1,3.8384845E2,6.119207E2,5.6132355E2,4.424558E1,8.40182E1,4.1066745E2,1.9200198E2,1.9383568E1,9.3854546E1,1.09116234E2,7.890994E1,1.7007597E2,2.8902118E2,2.4630566E2,3.8985897E1,1.8737093E2,2.6584247E2,9.9047186E2,9.099601E2,1.3199203E2,4.6537876E1,2.1224792E1,3.1674943E0,2.461113E2,1.6678964E2,7.1977606E0,1.1412417E1,5.978031E0,6.810276E1,1.351877E1,9.106474E0,2.618174E1,3.2270777E0,1.3876535E1,6.213275E0,1.266983E2,1.1573828E2,1.7211765E1,2.4341805E0,1.0292956E2,2.809189E2,5.1129935E2,1.0062137E2,3.0269128E2,2.586323E2,5.212769E0,3.903281E1,6.2941E0,7.77241E1,2.3462108E2,1.7604636E2,2.980524E1,1.6219675E2,3.3256154E0,1.6057951E1,4.164541E1,5.220914E1,5.527459E1,5.384165E1,1.5033569E1,6.3876377E1,1.3023643E2,3.9839535E1,1.7598874E2,1.1303243E2,1.5208287E1,2.3109738E2,2.4683949E1,1.4301948E1,8.3868904E1,1.0350203E2,1.9293098E2,7.291149E1,3.514877E2,6.3898413E2,8.23384E2,8.657613E1,4.984171E1,8.215032E1,2.6735846E1,1.980203E1,2.0027523E1,1.1972697E0,1.6389483E0,1.528546E0,7.942111E1,1.6669017E2,1.0271519E2,6.407445E1],"tree_param":{"num_deleted":"0","num_feature":"61","num_nodes":"127","size_leaf_vector":"1"}},{"base_weights":[1.6183485E-3,2.059017E-1,-3.7424784E-2,-1.5023452E-1,2.718944E-1,1.8224669E-1,-8.062457E-2,-3.4216356E-1,3.799778E-1,3.7799755E-1,6.8891486E-3,1.4361157E-2,3.5228768E-1,1.124027E-1,-1.4215541E-1,9.9239147E-1,-4.030269E-1,-4.4130543E-1,6.544292E-1,2.1918671E-1,5.641252E-1,4.8293144E-1,-1.5836152E-1,4.6177486E-1,-6.0252532E-2,-2.016875E-1,4.1008562E-1,-2.9206634E-2,3.659878E-1,1.16404764E-1,-1.8387969E-1,3.5047007E-1,3.746507E-2,-6.9488764E-1,-1.3085969E-1,-1.6068978E0,2.793785E-1,9.0479475E-1,-6.7835893E-3,3.3925903E-1,-1.9690123E-1,9.4787174E-1,4.678517E-1,-1.2958044E-1,6.871566E-1,-2.8160936E-1,3.679631E-1,6.355225E-1,-3.6049092E-1,8.529065E-1,-9.3638435E-2,6.581824E-1,-5.4196423E-1,2.8774238E-1,6.9373286E-1,3.69241E-1,-1.03687435E-1,2.5418594E-1,7.4557644E-1,3.7924898E-1,-1.572692E-2,-3.767932E-1,-1.0386356E-1,-8.390354E-2,-3.308004E-1,-1.4272839E-1,1.2608066E-1,-3.3037882E-2,-6.2246364E-1,-2.3662688E-1,2.784544E-1,2.973549E-1,-6.709253E-2,2.2262658E-1,-3.012259E-1,-4.8367612E-2,1.3305745E-1,1.1305821E-1,-1.5574157E-1,2.989821E-1,-2.2655374E-1,1.9796684E-1,4.694859E-2,3.270774E-1,-1.3760415E-1,3.0825713E-3,2.593779E-1,-1.797756E-1,-2.093949E-2,-2.2605427E-1,1.485488E-1,-9.7824626E-2,2.3070495E-1,1.4247294E-1,-3.644692E-1,-8.1673205E-2,4.6274993E-1,-1.2309108E-1,5.8459044E-3,2.7819574E-1,-3.3318773E-1,-8.9814916E-2,-5.1918E-1,7.4652866E-2,4.3621278E-1,2.3447019E-1,-5.4672E-2,-6.293745E-2,1.6833428E-1,7.630692E-2,-5.357262E-2,8.6214915E-2,-2.5351006E-1,2.5870325E-2,2.712676E-1,-1.704145E-1,1.3107905E-1,4.167177E-2,-8.366855E-2,-7.971042E-2,-1.8375634E-1,-6.809535E-2,1.1964532E-2],"categories":[],"categories_nodes":[],"categories_segments":[],"categories_sizes":[],"default_left":[0,0,0,0,0,0,0,0,0,0,0,0,0,0,0,0,0,0,0,0,0,0,0,0,0,0,0,0,0,0,0,0,0,0,0,0,0,0,0,0,0,0,0,0,0,0,0,0,0,0,0,0,0,0,0,0,0,0,0,0,0,0,0,0,0,0,0,0,0,0,0,0,0,0,0,0,0,0,0,0,0,0,0,0,0,0,0,0,0,0,0,0,0,0,0,0,0,0,0,0,0,0,0,0,0,0,0,0,0,0,0,0,0,0,0,0,0,0,0,0,0,0,0],"id":10,"left_children":[1,3,5,7,9,11,13,15,17,19,21,23,25,27,29,31,33,35,37,39,41,43,45,47,49,51,53,55,57,59,61,-1,-1,63,65,67,69,71,73,75,77,79,81,83,85,87,89,91,93,95,97,99,101,103,105,107,109,111,113,115,117,119,121,-1,-1,-1,-1,-1,-1,-1,-1,-1,-1,-1,-1,-1,-1,-1,-1,-1,-1,-1,-1,-1,-1,-1,-1,-1,-1,-1,-1,-1,-1,-1,-1,-1,-1,-1,-1,-1,-1,-1,-1,-1,-1,-1,-1,-1,-1,-1,-1,-1,-1,-1,-1,-1,-1,-1,-1,-1,-1,-1,-1],"loss_changes":[5.277049E1,2.499141E1,5.2727367E1,1.7084778E1,2.5191246E1,2.6063145E1,5.5155975E1,1.0378915E1,1.0376698E1,1.8788628E1,2.0309067E1,1.5401848E1,1.4607079E1,4.032812E1,3.800463E1,7.155762E-1,9.298882E0,1.0367228E1,5.6260366E0,1.739696E1,1.0415909E1,8.410288E0,1.2537149E1,9.649667E0,1.2140148E1,1.309238E1,1.4066353E1,2.1445671E1,1.6887035E1,1.7017601E1,4.676303E1,0E0,0E0,9.310036E0,1.2061164E1,3.0351133E0,6.3786917E0,2.622839E0,8.449921E0,1.4138113E1,1.4675144E1,5.564686E0,1.40650215E1,7.5154576E0,6.0018997E0,1.044529E1,5.6228266E0,7.2851906E0,9.2427E0,1.1322829E1,1.3711619E1,7.1198874E0,8.632118E0,1.2746168E1,9.619427E0,1.2763674E1,1.6362017E1,1.1640717E1,9.444435E0,9.203966E0,1.3342705E1,2.3105293E1,3.7961784E1,0E0,0E0,0E0,0E0,0E0,0E0,0E0,0E0,0E0,0E0,0E0,0E0,0E0,0E0,0E0,0E0,0E0,0E0,0E0,0E0,0E0,0E0,0E0,0E0,0E0,0E0,0E0,0E0,0E0,0E0,0E0,0E0,0E0,0E0,0E0,0E0,0E0,0E0,0E0,0E0,0E0,0E0,0E0,0E0,0E0,0E0,0E0,0E0,0E0,0E0,0E0,0E0,0E0,0E0,0E0,0E0,0E0,0E0,0E0,0E0],"parents":[2147483647,0,0,1,1,2,2,3,3,4,4,5,5,6,6,7,7,8,8,9,9,10,10,11,11,12,12,13,13,14,14,15,15,16,16,17,17,18,18,19,19,20,20,21,21,22,22,23,23,24,24,25,25,26,26,27,27,28,28,29,29,30,30,33,33,34,34,35,35,36,36,37,37,38,38,39,39,40,40,41,41,42,42,43,43,44,44,45,45,46,46,47,47,48,48,49,49,50,50,51,51,52,52,53,53,54,54,55,55,56,56,57,57,58,58,59,59,60,60,61,61,62,62],"right_children":[2,4,6,8,10,12,14,16,18,20,22,24,26,28,30,32,34,36,38,40,42,44,46,48,50,52,54,56,58,60,62,-1,-1,64,66,68,70,72,74,76,78,80,82,84,86,88,90,92,94,96,98,100,102,104,106,108,110,112,114,116,118,120,122,-1,-1,-1,-1,-1,-1,-1,-1,-1,-1,-1,-1,-1,-1,-1,-1,-1,-1,-1,-1,-1,-1,-1,-1,-1,-1,-1,-1,-1,-1,-1,-1,-1,-1,-1,-1,-1,-1,-1,-1,-1,-1,-1,-1,-1,-1,-1,-1,-1,-1,-1,-1,-1,-1,-1,-1,-1,-1,-1,-1],"split_conditions":[-2.0633033E-1,2.3312265E-1,4.180838E-2,-5.15584E-2,-1.5823919E-1,-1.5346274E-1,6.380368E1,-3.066933E-2,2.0979339E-1,7.871926E-2,3.395626E-1,-1.4984655E-1,-1.4752012E-1,-2.0875901E-1,-1.0200601E-1,-2.072798E-1,6.708059E-2,3.61485E-2,3.1233903E-2,5.2373946E-1,-2.8107503E-1,-2.157339E-1,4.8680544E-1,-1.0774257E0,-8.796366E-2,-1.8412952E-1,2.5476477E0,-2.7023518E-1,3.5137918E-2,-5.760133E-1,-5.648001E-2,3.5047007E-1,3.746507E-2,-1.8674661E-1,1.790847E-2,5.996597E-2,-2.1294497E-1,1.276521E-1,-2.5226462E-1,-3.069548E-2,-2.0563242E-1,-6.106932E-2,5.1788783E-1,-2.6265445E-1,-1.3974163E-1,-2.0773101E-1,2.8315413E-1,2.8E1,1.13E2,-1.0333986E-1,2.968355E-1,1.0716485E-1,-6.280988E-2,-9.09812E-1,8.085889E-2,-2.2758445E-1,-3.758227E-1,2.8709128E-1,-1.5110414E-1,-7.478637E-2,-8.564745E-2,5.635483E-1,3.1136414E-2,-8.390354E-2,-3.308004E-1,-1.4272839E-1,1.2608066E-1,-3.3037882E-2,-6.2246364E-1,-2.3662688E-1,2.784544E-1,2.973549E-1,-6.709253E-2,2.2262658E-1,-3.012259E-1,-4.8367612E-2,1.3305745E-1,1.1305821E-1,-1.5574157E-1,2.989821E-1,-2.2655374E-1,1.9796684E-1,4.694859E-2,3.270774E-1,-1.3760415E-1,3.0825713E-3,2.593779E-1,-1.797756E-1,-2.093949E-2,-2.2605427E-1,1.485488E-1,-9.7824626E-2,2.3070495E-1,1.4247294E-1,-3.644692E-1,-8.1673205E-2,4.6274993E-1,-1.2309108E-1,5.8459044E-3,2.7819574E-1,-3.3318773E-1,-8.9814916E-2,-5.1918E-1,7.4652866E-2,4.3621278E-1,2.3447019E-1,-5.4672E-2,-6.293745E-2,1.6833428E-1,7.630692E-2,-5.357262E-2,8.6214915E-2,-2.5351006E-1,2.5870325E-2,2.712676E-1,-1.704145E-1,1.3107905E-1,4.167177E-2,-8.366855E-2,-7.971042E-2,-1.8375634E-1,-6.809535E-2,1.1964532E-2],"split_indices":[13,15,16,21,29,21,9,33,32,28,25,53,57,40,59,29,28,56,45,25,49,19,35,36,54,58,41,58,18,37,55,0,0,49,45,48,19,54,13,42,49,30,25,40,21,19,15,7,0,43,15,53,14,36,53,14,44,22,13,42,49,25,56,0,0,0,0,0,0,0,0,0,0,0,0,0,0,0,0,0,0,0,0,0,0,0,0,0,0,0,0,0,0,0,0,0,0,0,0,0,0,0,0,0,0,0,0,0,0,0,0,0,0,0,0,0,0,0,0,0,0,0,0],"split_type":[0,0,0,0,0,0,0,0,0,0,0,0,0,0,0,0,0,0,0,0,0,0,0,0,0,0,0,0,0,0,0,0,0,0,0,0,0,0,0,0,0,0,0,0,0,0,0,0,0,0,0,0,0,0,0,0,0,0,0,0,0,0,0,0,0,0,0,0,0,0,0,0,0,0,0,0,0,0,0,0,0,0,0,0,0,0,0,0,0,0,0,0,0,0,0,0,0,0,0,0,0,0,0,0,0,0,0,0,0,0,0,0,0,0,0,0,0,0,0,0,0,0,0],"sum_hessian":[6.6143076E3,1.0606179E3,5.55369E3,1.6561005E2,8.950079E2,9.121544E2,4.6415356E3,1.21854996E2,4.3755047E1,6.388128E2,2.5619513E2,4.5953198E2,4.5262244E2,1.1217349E3,3.5198008E3,4.647332E0,1.17207664E2,1.0807161E1,3.2947887E1,3.4587625E2,2.9293655E2,6.5521904E1,1.9067322E2,6.493953E1,3.9459244E2,4.2526806E1,4.100956E2,7.203533E2,4.013815E2,4.888247E2,3.030976E3,3.5758584E0,1.0714737E0,5.5808163E1,6.13995E1,3.6592379E0,7.1479235E0,2.3631521E1,9.316366E0,2.6856107E2,7.7315186E1,5.697766E1,2.3595888E2,1.6475151E1,4.9046753E1,1.5487221E2,3.5801003E1,5.379877E1,1.1140762E1,1.3051998E1,3.8154044E2,1.1792706E1,3.0734098E1,2.8792273E2,1.221729E2,1.1282412E2,6.075292E2,3.113484E2,9.003313E1,1.6290137E2,3.2592334E2,8.875187E2,2.1434573E3,2.8487524E1,2.7320639E1,3.78496E1,2.3549898E1,1.1658267E0,2.4934113E0,2.6195705E0,4.5283527E0,2.2064026E1,1.5674946E0,5.4670653E0,3.8493013E0,4.6208767E1,2.2235228E2,2.7744688E1,4.9570503E1,5.5795795E1,1.1818665E0,1.4525154E2,9.070734E1,3.009038E0,1.3466112E1,1.040642E1,3.864033E1,6.122576E1,9.3646454E1,3.1453743E0,3.265563E1,6.3822746E0,4.7416496E1,5.8576126E0,5.28315E0,5.189668E0,7.86233E0,9.97336E1,2.8180682E2,1.0648238E1,1.1444674E0,2.6564575E1,4.1695247E0,2.798038E2,8.118912E0,1.11136894E2,1.1036001E1,2.8057922E1,8.47662E1,1.0467503E2,5.0285416E2,3.0293802E2,8.410351E0,1.7761238E1,7.227189E1,8.841955E0,1.5405942E2,2.0559291E2,1.2033043E2,6.046782E2,2.8284045E2,1.1542439E3,9.8921344E2],"tree_param":{"num_deleted":"0","num_feature":"61","num_nodes":"123","size_leaf_vector":"1"}},{"base_weights":[1.9548722E-3,1.1970431E-1,-5.825746E-2,2.48222E-2,2.385803E-1,6.547273E-2,-1.379563E-1,2.7737373E-1,-4.326459E-2,3.346758E-1,2.7142263E-3,2.1384862E-1,-7.562178E-2,-2.5488332E-1,-2.9112857E-3,2.1381E-2,4.0918088E-1,-1.9951719E-1,1.2141783E-1,3.766574E-1,-9.368481E-2,5.3200895E-1,-1.0716888E-1,5.500251E-1,1.2739389E-1,3.6486042E-1,-1.2150597E-1,1.7776178E-2,-3.3932436E-1,1.2031796E-1,-1.4417577E-1,3.5947466E-1,-2.3114279E-1,5.6549907E-1,-6.1754454E-2,6.520123E-1,-2.3215711E-1,-6.9746464E-2,2.714441E-1,4.955576E-1,2.0732492E-1,1.9795066E-1,-6.755025E-1,-6.4164853E-1,7.0134467E-1,2.1892413E-1,-3.0571988E-1,3.895396E-1,9.3967474E-1,3.2985902E-1,-2.0990308E-2,5.7115096E-1,-5.463873E-1,-1.3488541E-2,-3.055669E-1,-6.987588E-2,4.4103634E-1,-3.9353696E-1,-1.289099E-3,1.1890099E-2,3.6418378E-1,1.4010048E-1,-2.8605375E-1,1.500374E-2,2.8696543E-1,-1.2979741E-1,1.669336E-1,2.3682807E-1,7.907661E-2,-1.105079E-1,2.2971503E-1,2.201223E-3,3.5663462E-1,-1.0944362E-1,-1.414645E-4,-5.9163745E-2,1.1084843E-1,1.281027E-1,-2.0116847E-2,-2.95567E-1,1.5472767E-1,9.522296E-2,-6.4747155E-2,2.873472E-1,-1.4797274E-2,9.387542E-2,-2.768949E-1,5.4088797E-2,-4.2993444E-1,1.1751242E-1,3.2742223E-1,-1.7111607E-1,1.0099498E-1,-1.6385452E-1,8.165703E-2,7.838428E-2,3.1714004E-1,1.780721E-1,3.9922944E-1,4.1624077E-2,1.7749536E-1,1.23872785E-2,-2.1026139E-1,-4.42339E-3,2.38362E-1,9.436564E-2,-2.626754E-1,4.4042185E-2,-6.197718E-2,-1.12004206E-1,1.3036658E-1,-1.8187004E-1,7.477612E-3,-6.6049737E-3,2.2058517E-1,-9.224474E-2,-1.9611417E-1,4.600289E-2,-1.450214E-1,2.7481621E-2,-9.796599E-2,1.3710289E-1,-1.470552E-1,-1.6262358E-1,7.804135E-2,-1.6176285E-1,-2.7468037E-2],"categories":[],"categories_nodes":[],"categories_segments":[],"categories_sizes":[],"default_left":[0,0,0,0,0,0,0,0,0,0,0,0,0,0,0,0,0,0,0,0,0,0,0,0,0,0,0,0,0,0,0,0,0,0,0,0,0,0,0,0,0,0,0,0,0,0,0,0,0,0,0,0,0,0,0,0,0,0,0,0,0,0,0,0,0,0,0,0,0,0,0,0,0,0,0,0,0,0,0,0,0,0,0,0,0,0,0,0,0,0,0,0,0,0,0,0,0,0,0,0,0,0,0,0,0,0,0,0,0,0,0,0,0,0,0,0,0,0,0,0,0,0,0,0,0,0,0],"id":11,"left_children":[1,3,5,7,9,11,13,15,17,19,21,23,25,27,29,31,33,35,37,39,41,43,45,47,49,51,53,55,57,59,61,63,65,67,69,71,73,75,77,79,81,83,85,87,89,91,93,95,97,99,101,103,105,107,109,111,113,115,117,119,121,123,125,-1,-1,-1,-1,-1,-1,-1,-1,-1,-1,-1,-1,-1,-1,-1,-1,-1,-1,-1,-1,-1,-1,-1,-1,-1,-1,-1,-1,-1,-1,-1,-1,-1,-1,-1,-1,-1,-1,-1,-1,-1,-1,-1,-1,-1,-1,-1,-1,-1,-1,-1,-1,-1,-1,-1,-1,-1,-1,-1,-1,-1,-1,-1,-1],"loss_changes":[4.6293644E1,2.4912077E1,4.261192E1,2.1157286E1,2.2222641E1,3.546467E1,4.1496647E1,8.806589E0,2.4970022E1,1.2563416E1,1.6623434E1,2.392511E1,1.76011E1,3.243434E1,2.12643E1,7.754462E0,1.2726755E1,1.3988054E1,1.357329E1,1.2675537E1,1.0820505E1,1.0215278E1,1.5392594E1,1.0176113E1,1.9775314E1,1.5764274E1,1.5652112E1,1.2422205E1,1.9708382E1,1.724699E1,2.2993696E1,7.1229873E0,8.500758E0,8.549576E0,1.1411438E1,6.441676E0,1.4758158E1,1.1752576E1,1.3983318E1,1.1640228E1,1.2344382E1,8.075504E0,5.488286E0,4.6284714E0,4.8163776E0,8.570185E0,2.0651741E1,1.0094095E1,5.7710457E0,1.3844305E1,1.614753E1,8.848354E0,4.720782E0,1.5423136E1,1.4769377E1,1.412855E1,7.8422794E0,2.055017E1,1.1230214E1,1.2242209E1,1.6146364E1,1.57112255E1,1.865911E1,0E0,0E0,0E0,0E0,0E0,0E0,0E0,0E0,0E0,0E0,0E0,0E0,0E0,0E0,0E0,0E0,0E0,0E0,0E0,0E0,0E0,0E0,0E0,0E0,0E0,0E0,0E0,0E0,0E0,0E0,0E0,0E0,0E0,0E0,0E0,0E0,0E0,0E0,0E0,0E0,0E0,0E0,0E0,0E0,0E0,0E0,0E0,0E0,0E0,0E0,0E0,0E0,0E0,0E0,0E0,0E0,0E0,0E0,0E0,0E0,0E0,0E0,0E0,0E0],"parents":[2147483647,0,0,1,1,2,2,3,3,4,4,5,5,6,6,7,7,8,8,9,9,10,10,11,11,12,12,13,13,14,14,15,15,16,16,17,17,18,18,19,19,20,20,21,21,22,22,23,23,24,24,25,25,26,26,27,27,28,28,29,29,30,30,31,31,32,32,33,33,34,34,35,35,36,36,37,37,38,38,39,39,40,40,41,41,42,42,43,43,44,44,45,45,46,46,47,47,48,48,49,49,50,50,51,51,52,52,53,53,54,54,55,55,56,56,57,57,58,58,59,59,60,60,61,61,62,62],"right_children":[2,4,6,8,10,12,14,16,18,20,22,24,26,28,30,32,34,36,38,40,42,44,46,48,50,52,54,56,58,60,62,64,66,68,70,72,74,76,78,80,82,84,86,88,90,92,94,96,98,100,102,104,106,108,110,112,114,116,118,120,122,124,126,-1,-1,-1,-1,-1,-1,-1,-1,-1,-1,-1,-1,-1,-1,-1,-1,-1,-1,-1,-1,-1,-1,-1,-1,-1,-1,-1,-1,-1,-1,-1,-1,-1,-1,-1,-1,-1,-1,-1,-1,-1,-1,-1,-1,-1,-1,-1,-1,-1,-1,-1,-1,-1,-1,-1,-1,-1,-1,-1,-1,-1,-1,-1,-1],"split_conditions":[1.683937E-2,3.193273E-1,-3.4745193E-1,-6.950427E-2,5.727411E-1,-1.1304156E-1,1.107241E-2,2.4056913E-1,4.546903E-2,-9.156176E-4,-4.9157196E-1,8.881918E-2,-4.736324E-1,3.567525E-2,-1.688826E-1,7.993238E-2,2.2472116E-1,-4.2690945E-1,-1.1560469E0,1.8854836E-1,-1.8712091E-1,-2.461722E-1,-3.0284265E-1,3.2744318E-1,5.396186E-2,6.945482E-2,5.6516796E-1,-8.375817E-2,4.165374E-1,2.383713E-1,3.1705612E-1,2.214146E-1,-1.4103912E-1,1.7969343E-1,-1.297577E-1,5.6E1,6E1,3.6E1,1.9090778E-1,-2.1399969E-1,5.739394E-2,6.57E2,-3.864367E-1,7.089412E-1,5.002512E-2,-1.5338655E-1,-2.3890492E-1,9.493365E-2,-1.6245362E-1,3.087132E-1,2.5339404E-3,-2.0596652E-1,4.687545E-1,-2.5673032E-1,4.9664468E-1,-9.365785E-2,2.1734217E-1,-8.162096E-2,-4.8553985E-1,2.1382922E-1,5.53841E-2,6.006367E-2,-2.408573E-1,1.500374E-2,2.8696543E-1,-1.2979741E-1,1.669336E-1,2.3682807E-1,7.907661E-2,-1.105079E-1,2.2971503E-1,2.201223E-3,3.5663462E-1,-1.0944362E-1,-1.414645E-4,-5.9163745E-2,1.1084843E-1,1.281027E-1,-2.0116847E-2,-2.95567E-1,1.5472767E-1,9.522296E-2,-6.4747155E-2,2.873472E-1,-1.4797274E-2,9.387542E-2,-2.768949E-1,5.4088797E-2,-4.2993444E-1,1.1751242E-1,3.2742223E-1,-1.7111607E-1,1.0099498E-1,-1.6385452E-1,8.165703E-2,7.838428E-2,3.1714004E-1,1.780721E-1,3.9922944E-1,4.1624077E-2,1.7749536E-1,1.23872785E-2,-2.1026139E-1,-4.42339E-3,2.38362E-1,9.436564E-2,-2.626754E-1,4.4042185E-2,-6.197718E-2,-1.12004206E-1,1.3036658E-1,-1.8187004E-1,7.477612E-3,-6.6049737E-3,2.2058517E-1,-9.224474E-2,-1.9611417E-1,4.600289E-2,-1.450214E-1,2.7481621E-2,-9.796599E-2,1.3710289E-1,-1.470552E-1,-1.6262358E-1,7.804135E-2,-1.6176285E-1,-2.7468037E-2],"split_indices":[54,15,30,26,25,49,55,32,56,13,17,38,17,38,58,33,16,58,36,16,44,21,30,32,46,49,25,40,15,20,39,35,44,22,40,7,4,6,16,57,26,3,23,25,45,55,40,57,49,20,13,51,25,23,15,45,32,49,37,34,31,11,40,0,0,0,0,0,0,0,0,0,0,0,0,0,0,0,0,0,0,0,0,0,0,0,0,0,0,0,0,0,0,0,0,0,0,0,0,0,0,0,0,0,0,0,0,0,0,0,0,0,0,0,0,0,0,0,0,0,0,0,0,0,0,0,0],"split_type":[0,0,0,0,0,0,0,0,0,0,0,0,0,0,0,0,0,0,0,0,0,0,0,0,0,0,0,0,0,0,0,0,0,0,0,0,0,0,0,0,0,0,0,0,0,0,0,0,0,0,0,0,0,0,0,0,0,0,0,0,0,0,0,0,0,0,0,0,0,0,0,0,0,0,0,0,0,0,0,0,0,0,0,0,0,0,0,0,0,0,0,0,0,0,0,0,0,0,0,0,0,0,0,0,0,0,0,0,0,0,0,0,0,0,0,0,0,0,0,0,0,0,0,0,0,0,0],"sum_hessian":[6.527473E3,2.2081982E3,4.319275E3,1.2287041E3,9.794942E2,1.6922631E3,2.6270117E3,2.6025967E2,9.684444E2,6.956548E2,2.8383945E2,8.2459644E2,8.6766656E2,1.4074777E3,1.219534E3,8.885323E1,1.7140645E2,4.9683246E2,4.7161197E2,6.3367224E2,6.1982517E1,4.813533E1,2.3570412E2,1.6758508E2,6.5701135E2,8.120052E1,7.8646606E2,3.3300305E2,1.0744746E3,6.5142487E2,5.681092E2,3.7808914E1,5.104432E1,1.285394E2,4.2867058E1,1.764051E1,4.7919196E2,2.076097E2,2.6400226E2,3.711413E2,2.6253094E2,4.1726784E1,2.0255733E1,5.717616E0,4.2417713E1,8.9163155E1,1.4654097E2,1.20113495E2,4.7471592E1,2.7735162E2,3.7965973E2,6.651574E1,1.4684782E1,4.9628882E2,2.9017722E2,2.7656473E2,5.64383E1,9.2582996E2,1.486447E2,4.5165735E2,1.9976755E2,1.8914272E2,3.789665E2,2.561601E1,1.2192903E1,4.100363E1,1.004069E1,7.287387E1,5.5665524E1,3.1682493E1,1.1184566E1,8.475216E0,9.165295E0,3.0435468E2,1.748373E2,1.613404E2,4.6269306E1,1.806975E2,8.330477E1,4.352146E0,3.6678915E2,2.085303E2,5.4000645E1,9.539248E0,3.2187534E1,4.0031214E0,1.6252611E1,3.18361E0,2.534006E0,2.4763977E1,1.7653736E1,1.1073575E1,7.808958E1,1.0352166E2,4.3019302E1,1.0192329E2,1.8190208E1,2.6520027E1,2.0951563E1,1.6120187E2,1.16149734E2,3.4865967E2,3.100008E1,1.8618332E1,4.7897408E1,4.074184E0,1.0610599E1,2.7131088E2,2.2497794E2,2.662863E2,2.3890955E1,4.0730236E1,2.358345E2,2.2288458E1,3.414984E1,6.97358E2,2.2847198E2,1.1306315E2,3.5581547E1,3.6614636E2,8.551099E1,1.8060966E2,1.9157885E1,2.7775732E1,1.6136699E2,1.6388242E2,2.1508408E2],"tree_param":{"num_deleted":"0","num_feature":"61","num_nodes":"127","size_leaf_vector":"1"}},{"base_weights":[1.8861351E-3,-7.419427E-2,8.317742E-2,-1.8782121E-1,8.787518E-3,3.8880218E-2,2.9533142E-1,-6.7502484E-2,-3.2416642E-1,-1.1068603E-1,1.23374544E-1,8.671706E-2,-1.3386448E-1,9.8013036E-2,4.817679E-1,-1.6083714E-1,1.6296786E-1,-8.315333E-2,-4.5409772E-1,-1.964346E-1,1.3489991E-1,3.274743E-2,3.477731E-1,1.295199E-1,-1.958795E-1,3.3985603E-1,-1.9630472E-1,1.7401341E-2,6.0268426E-1,7.364912E-1,3.2770547E-1,7.4753272E-3,-3.3157232E-1,3.026245E-1,-2.7111167E-1,-3.0105194E-1,2.150878E-1,-3.4306425E-1,-7.265458E-1,3.614691E-1,-2.3361138E-1,-2.268432E-1,3.3809698E-1,-4.043612E-1,9.242223E-2,7.0290774E-1,2.3401295E-1,1.9972205E-1,-1.8246453E-2,-2.6988876E-1,8.896883E-1,-7.6200482E-3,7.911102E-1,-4.1092718E-1,-7.587965E-2,-2.2002101E-2,1.2353727E0,8.05854E-1,1.5416454E-2,3.0157524E-1,9.685901E-1,-7.794933E-1,3.9066604E-1,-4.0718645E-2,1.6255257E-1,1.8038552E-1,-1.2311779E-1,1.8978445E-1,4.4235177E-2,-1.4881052E-1,2.9279324E-1,-3.3810687E-1,-4.8784178E-2,-4.0781334E-2,1.8193835E-1,3.2922345E-1,-1.1085338E-1,-2.590589E-1,-6.887135E-2,-2.426541E-2,2.7322376E-1,-1.6806995E-2,-1.0634867E-1,-7.012656E-3,-2.2414137E-1,1.992368E-1,3.460866E-2,-8.5215405E-2,-3.9971557E-1,-8.197203E-2,4.3863326E-2,-4.199822E-2,2.4573164E-1,2.7449666E-2,1.7681715E-1,3.100864E-2,1.0483339E-1,2.1968475E-2,-9.654733E-2,6.159158E-2,-1.2977028E-1,3.7802345E-1,3.5935019E-3,4.921023E-1,-3.8053833E-2,1.0274307E-1,3.8242853E-1,-1.8120271E-1,-1.7909238E-2,-4.1206878E-2,2.0165202E-1,4.3770965E-2,-1.0002335E-1,-1.7402671E-1,4.894918E-1,4.2744032E-1,8.6092904E-2,1.3146193E-1,-2.6712805E-1,2.2352327E-1,-5.121672E-2,3.0089766E-1,-1.6621237E-1,-4.344244E-1,-7.613537E-2,-9.220527E-2,1.3737044E-1],"categories":[],"categories_nodes":[],"categories_segments":[],"categories_sizes":[],"default_left":[0,0,0,0,0,0,0,0,0,0,0,0,0,0,0,0,0,0,0,0,0,0,0,0,0,0,0,0,0,0,0,0,0,0,0,0,0,0,0,0,0,0,0,0,0,0,0,0,0,0,0,0,0,0,0,0,0,0,0,0,0,0,0,0,0,0,0,0,0,0,0,0,0,0,0,0,0,0,0,0,0,0,0,0,0,0,0,0,0,0,0,0,0,0,0,0,0,0,0,0,0,0,0,0,0,0,0,0,0,0,0,0,0,0,0,0,0,0,0,0,0,0,0,0,0,0,0],"id":12,"left_children":[1,3,5,7,9,11,13,15,17,19,21,23,25,27,29,31,33,35,37,39,41,43,45,47,49,51,53,55,57,59,61,63,65,67,69,71,73,75,77,79,81,83,85,87,89,91,93,95,97,99,101,103,105,107,109,111,113,115,117,119,121,123,125,-1,-1,-1,-1,-1,-1,-1,-1,-1,-1,-1,-1,-1,-1,-1,-1,-1,-1,-1,-1,-1,-1,-1,-1,-1,-1,-1,-1,-1,-1,-1,-1,-1,-1,-1,-1,-1,-1,-1,-1,-1,-1,-1,-1,-1,-1,-1,-1,-1,-1,-1,-1,-1,-1,-1,-1,-1,-1,-1,-1,-1,-1,-1,-1],"loss_changes":[3.9779247E1,3.1328947E1,2.9210648E1,2.2983307E1,2.6313946E1,2.1277939E1,1.9705719E1,1.6077927E1,2.0540169E1,1.9843334E1,1.9940525E1,2.4410835E1,1.6586763E1,1.0653064E1,1.0583214E1,1.527974E1,1.3151438E1,1.510233E1,1.265963E1,1.4559656E1,1.802146E1,1.8295078E1,1.1233852E1,1.8172058E1,2.157753E1,1.0262031E1,1.2739124E1,1.0923591E1,4.291504E0,1.0120575E1,1.2411642E1,2.063467E1,1.965345E1,8.283128E0,1.5352011E1,1.5153283E1,1.3583206E1,1.2027443E1,8.152168E0,1.0762829E1,1.4039448E1,9.341543E0,1.1304161E1,9.029808E0,1.216921E1,6.7700043E0,1.08444E1,1.7095055E1,1.5713595E1,1.9368326E1,5.571126E0,7.6632543E0,5.7396927E0,1.1992073E1,1.4703997E1,1.1599551E1,6.0777435E0,8.19195E0,4.3315463E0,7.9499054E0,4.0551796E0,3.0343795E0,7.88443E0,0E0,0E0,0E0,0E0,0E0,0E0,0E0,0E0,0E0,0E0,0E0,0E0,0E0,0E0,0E0,0E0,0E0,0E0,0E0,0E0,0E0,0E0,0E0,0E0,0E0,0E0,0E0,0E0,0E0,0E0,0E0,0E0,0E0,0E0,0E0,0E0,0E0,0E0,0E0,0E0,0E0,0E0,0E0,0E0,0E0,0E0,0E0,0E0,0E0,0E0,0E0,0E0,0E0,0E0,0E0,0E0,0E0,0E0,0E0,0E0,0E0,0E0,0E0,0E0],"parents":[2147483647,0,0,1,1,2,2,3,3,4,4,5,5,6,6,7,7,8,8,9,9,10,10,11,11,12,12,13,13,14,14,15,15,16,16,17,17,18,18,19,19,20,20,21,21,22,22,23,23,24,24,25,25,26,26,27,27,28,28,29,29,30,30,31,31,32,32,33,33,34,34,35,35,36,36,37,37,38,38,39,39,40,40,41,41,42,42,43,43,44,44,45,45,46,46,47,47,48,48,49,49,50,50,51,51,52,52,53,53,54,54,55,55,56,56,57,57,58,58,59,59,60,60,61,61,62,62],"right_children":[2,4,6,8,10,12,14,16,18,20,22,24,26,28,30,32,34,36,38,40,42,44,46,48,50,52,54,56,58,60,62,64,66,68,70,72,74,76,78,80,82,84,86,88,90,92,94,96,98,100,102,104,106,108,110,112,114,116,118,120,122,124,126,-1,-1,-1,-1,-1,-1,-1,-1,-1,-1,-1,-1,-1,-1,-1,-1,-1,-1,-1,-1,-1,-1,-1,-1,